{"learner":{"attributes":{"scikit_learn":"{\"_estimator_type\": \"regressor\"}"},"feature_names":[],"feature_types":[],"gradient_booster":{"model":{"cats":{"enc":[],"feature_segments":[],"sorted_idx":[]},"gbtree_model_param":{"num_parallel_tree":"1","num_trees":"300"},"iteration_indptr":[0,1,2,3,4,5,6,7,8,9,10,11,12,13,14,15,16,17,18,19,20,21,22,23,24,25,26,27,28,29,30,31,32,33,34,35,36,37,38,39,40,41,42,43,44,45,46,47,48,49,50,51,52,53,54,55,56,57,58,59,60,61,62,63,64,65,66,67,68,69,70,71,72,73,74,75,76,77,78,79,80,81,82,83,84,85,86,87,88,89,90,91,92,93,94,95,96,97,98,99,100,101,102,103,104,105,106,107,108,109,110,111,112,113,114,115,116,117,118,119,120,121,122,123,124,125,126,127,128,129,130,131,132,133,134,135,136,137,138,139,140,141,142,143,144,145,146,147,148,149,150,151,152,153,154,155,156,157,158,159,160,161,162,163,164,165,166,167,168,169,170,171,172,173,174,175,176,177,178,179,180,181,182,183,184,185,186,187,188,189,190,191,192,193,194,195,196,197,198,199,200,201,202,203,204,205,206,207,208,209,210,211,212,213,214,215,216,217,218,219,220,221,222,223,224,225,226,227,228,229,230,231,232,233,234,235,236,237,238,239,240,241,242,243,244,245,246,247,248,249,250,251,252,253,254,255,256,257,258,259,260,261,262,263,264,265,266,267,268,269,270,271,272,273,274,275,276,277,278,279,280,281,282,283,284,285,286,287,288,289,290,291,292,293,294,295,296,297,298,299,300],"tree_info":[0,0,0,0,0,0,0,0,0,0,0,0,0,0,0,0,0,0,0,0,0,0,0,0,0,0,0,0,0,0,0,0,0,0,0,0,0,0,0,0,0,0,0,0,0,0,0,0,0,0,0,0,0,0,0,0,0,0,0,0,0,0,0,0,0,0,0,0,0,0,0,0,0,0,0,0,0,0,0,0,0,0,0,0,0,0,0,0,0,0,0,0,0,0,0,0,0,0,0,0,0,0,0,0,0,0,0,0,0,0,0,0,0,0,0,0,0,0,0,0,0,0,0,0,0,0,0,0,0,0,0,0,0,0,0,0,0,0,0,0,0,0,0,0,0,0,0,0,0,0,0,0,0,0,0,0,0,0,0,0,0,0,0,0,0,0,0,0,0,0,0,0,0,0,0,0,0,0,0,0,0,0,0,0,0,0,0,0,0,0,0,0,0,0,0,0,0,0,0,0,0,0,0,0,0,0,0,0,0,0,0,0,0,0,0,0,0,0,0,0,0,0,0,0,0,0,0,0,0,0,0,0,0,0,0,0,0,0,0,0,0,0,0,0,0,0,0,0,0,0,0,0,0,0,0,0,0,0,0,0,0,0,0,0,0,0,0,0,0,0,0,0,0,0,0,0,0,0,0,0,0,0,0,0,0,0,0,0,0,0,0,0,0,0,0,0,0,0,0,0],"trees":[{"base_weights":[2.3366743E2,-4.057144E3,1.2968364E4,-8.348801E3,5.6949303E1,4.2001083E2,7.749623E2,-4.8283E2,-3.3696115E2,-1.5262517E3,2.825972E3,-1.2880711E2,-1.7969448E1,8.968625E1,1.6042038E2],"categories":[],"categories_nodes":[],"categories_segments":[],"categories_sizes":[],"default_left":[0,0,0,0,0,0,0,0,0,0,0,0,0,0,0],"id":0,"left_children":[1,3,5,7,9,-1,-1,-1,-1,11,13,-1,-1,-1,-1],"loss_changes":[1.3877088E10,3.3551693E9,6.097326E8,1.3068595E8,4.3393738E8,0E0,0E0,0E0,0E0,7.625381E7,8.456128E6,0E0,0E0,0E0,0E0],"parents":[2147483647,0,0,1,1,2,2,3,3,4,4,9,9,10,10],"right_children":[2,4,6,8,10,-1,-1,-1,-1,12,14,-1,-1,-1,-1],"split_conditions":[2.0047475E4,1.0315958E4,2.6495914E4,7.058889E3,1.6374055E4,4.2001083E2,7.749623E2,-4.8283E2,-3.3696115E2,1.3780417E4,1.7843795E4,-1.2880711E2,-1.7969448E1,8.968625E1,1.6042038E2],"split_indices":[6,6,6,6,6,0,0,0,0,6,6,0,0,0,0],"split_type":[0,0,0,0,0,0,0,0,0,0,0,0,0,0,0],"sum_hessian":[2.52E2,1.89E2,6.3E1,9.2E1,9.7E1,2.4E1,3.9E1,4.8E1,4.4E1,6.2E1,3.5E1,3.2E1,3E1,1.1E1,2.4E1],"tree_param":{"num_deleted":"0","num_feature":"18","num_nodes":"15","size_leaf_vector":"1"}},{"base_weights":[4.9153015E1,-4.73219E3,9.666865E3,-7.9965127E3,-1.2585782E3,5.7839336E3,1.4197988E4,-4.449979E2,-2.910208E2,-2.5818406E3,3.6839133E2,1.7077959E2,4.104855E2,7.576494E2,4.9565894E2,-3.3837302E2,-1.0713247E2,-3.2499146E1,6.841755E1],"categories":[],"categories_nodes":[],"categories_segments":[],"categories_sizes":[],"default_left":[0,0,0,0,0,0,0,0,0,0,0,0,0,0,0,0,0,0,0],"id":1,"left_children":[1,3,5,7,9,11,13,-1,-1,15,17,-1,-1,-1,-1,-1,-1,-1,-1],"loss_changes":[1.1910026E10,1.9515796E9,1.4309647E9,1.2316979E8,1.8394848E8,2.4772096E8,9.371136E6,0E0,0E0,7.189837E7,4.060447E7,0E0,0E0,0E0,0E0,0E0,0E0,0E0,0E0],"parents":[2147483647,0,0,1,1,2,2,3,3,4,4,5,5,6,6,9,9,10,10],"right_children":[2,4,6,8,10,12,14,-1,-1,16,18,-1,-1,-1,-1,-1,-1,-1,-1],"split_conditions":[1.818773E4,1.0155628E4,2.5770225E4,7.684462E3,1.3964112E4,2.272107E4,1.04893096E-1,-4.449979E2,-2.910208E2,1.2E-1,1.5557803E2,1.7077959E2,4.104855E2,7.576494E2,4.9565894E2,-3.3837302E2,-1.0713247E2,-3.2499146E1,6.841755E1],"split_indices":[6,6,6,6,6,6,7,0,0,2,3,0,0,0,0,0,0,0,0],"split_type":[0,0,0,0,0,0,0,0,0,0,0,0,0,0,0,0,0,0,0],"sum_hessian":[2.57E2,1.72E2,8.5E1,8.8E1,8.4E1,4.7E1,3.8E1,6E1,2.8E1,4.6E1,3.8E1,2.5E1,2.2E1,2.9E1,9E0,3E0,4.3E1,1.9E1,1.9E1],"tree_param":{"num_deleted":"0","num_feature":"18","num_nodes":"19","size_leaf_vector":"1"}},{"base_weights":[-1.10961975E2,-5.371696E3,8.503287E3,-7.5870513E3,-1.59417E3,4.8272676E3,1.3854746E4,-4.4373154E2,-3.1275827E2,-2.6783079E3,-3.886597E2,2.6689001E3,3.8565613E2,5.0268936E2,7.4566504E2,-1.0473309E2,-2.7638864E2,-3.7580036E1,1.6977564E1,1.4154655E2,3.121944E1],"categories":[],"categories_nodes":[],"categories_segments":[],"categories_sizes":[],"default_left":[0,0,0,0,0,0,0,0,0,0,0,0,0,0,0,0,0,0,0,0,0],"id":2,"left_children":[1,3,5,7,9,11,13,-1,-1,15,17,19,-1,-1,-1,-1,-1,-1,-1,-1,-1],"loss_changes":[1.2190706E10,1.3854541E9,1.939668E9,1.2455168E8,8.129592E7,3.65595E8,1.5026176E7,0E0,0E0,4.330203E7,8.448474E6,1.04892E7,0E0,0E0,0E0,0E0,0E0,0E0,0E0,0E0,0E0],"parents":[2147483647,0,0,1,1,2,2,3,3,4,4,5,5,6,6,9,9,10,10,11,11],"right_children":[2,4,6,8,10,12,14,-1,-1,16,18,20,-1,-1,-1,-1,-1,-1,-1,-1,-1],"split_conditions":[1.6374055E4,1.1096156E2,2.5713488E4,6.8862686E3,1.382195E4,2.272107E4,2.9404621E4,-4.4373154E2,-3.1275827E2,1.3784774E4,1.5100483E4,1.08519495E-1,3.8565613E2,5.0268936E2,7.4566504E2,-1.0473309E2,-2.7638864E2,-3.7580036E1,1.6977564E1,1.4154655E2,3.121944E1],"split_indices":[6,3,6,6,6,6,6,0,0,6,6,7,0,0,0,0,0,0,0,0,0],"split_type":[0,0,0,0,0,0,0,0,0,0,0,0,0,0,0,0,0,0,0,0,0],"sum_hessian":[2.67E2,1.66E2,1.01E2,1.04E2,6.2E1,6.1E1,4E1,5E1,5.4E1,3.2E1,3E1,3.6E1,2.5E1,1.1E1,2.9E1,2.8E1,4E0,2E1,1E1,3.3E1,3E0],"tree_param":{"num_deleted":"0","num_feature":"18","num_nodes":"21","size_leaf_vector":"1"}},{"base_weights":[-2.6876184E2,-3.4318037E3,1.157001E4,-7.226838E3,1.9056493E2,4.0779807E2,6.8700214E2,-4.1059073E2,-2.8261407E2,-1.8564628E3,2.4236052E3,-3.1531946E2,-7.52729E1,5.9212116E1,1.5051941E2],"categories":[],"categories_nodes":[],"categories_segments":[],"categories_sizes":[],"default_left":[0,0,0,0,0,0,0,0,0,0,0,0,0,0,0],"id":3,"left_children":[1,3,5,7,9,-1,-1,-1,-1,11,13,-1,-1,-1,-1],"loss_changes":[1.0300055E10,2.9844797E9,3.1763354E8,1.1797862E8,5.1646208E8,0E0,0E0,0E0,0E0,8.266002E7,3.5705344E7,0E0,0E0,0E0,0E0],"parents":[2147483647,0,0,1,1,2,2,3,3,4,4,9,9,10,10],"right_children":[2,4,6,8,10,-1,-1,-1,-1,12,14,-1,-1,-1,-1],"split_conditions":[3E0,1.0193139E2,2.8521354E4,7.3863423E3,1.5557803E2,4.0779807E2,6.8700214E2,-4.1059073E2,-2.8261407E2,1.2E-1,1.7843795E4,-3.1531946E2,-7.52729E1,5.9212116E1,1.5051941E2],"split_indices":[0,3,6,6,3,0,0,0,0,2,6,0,0,0,0],"split_type":[0,0,0,0,0,0,0,0,0,0,0,0,0,0,0],"sum_hessian":[2.73E2,2.16E2,5.7E1,1.05E2,1.11E2,2.4E1,3.3E1,6.2E1,4.3E1,5.8E1,5.3E1,3E0,5.5E1,1.8E1,3.5E1],"tree_param":{"num_deleted":"0","num_feature":"18","num_nodes":"15","size_leaf_vector":"1"}},{"base_weights":[3.5712363E2,-4.5365317E3,7.427434E3,-6.9739116E3,-1.4173285E3,3.9379163E3,1.1852687E4,-4.1093408E2,-3.0074582E2,-2.1833696E3,-1.6292726E2,2.4165142E3,3.2393817E2,4.4893668E2,6.713003E2,-1.4458487E2,-5.943932E1,-2.664163E1,3.3858826E1,1.25062904E2,5.0364594E1],"categories":[],"categories_nodes":[],"categories_segments":[],"categories_sizes":[],"default_left":[0,0,0,0,0,0,0,0,0,0,0,0,0,0,0,0,0,0,0,0,0],"id":4,"left_children":[1,3,5,7,9,11,13,-1,-1,15,17,19,-1,-1,-1,-1,-1,-1,-1,-1,-1],"loss_changes":[9.306405E9,1.1989412E9,1.6519434E9,5.680589E7,6.786957E7,2.2787904E8,9.648845E7,0E0,0E0,2.7559568E7,9.062056E6,2.376528E6,0E0,0E0,0E0,0E0,0E0,0E0,0E0,0E0,0E0],"parents":[2147483647,0,0,1,1,2,2,3,3,4,4,5,5,6,6,9,9,10,10,11,11],"right_children":[2,4,6,8,10,12,14,-1,-1,16,18,20,-1,-1,-1,-1,-1,-1,-1,-1,-1],"split_conditions":[1.7405344E4,9.544386E3,2.497053E4,6.488378E3,1.3964112E4,2.0047475E4,2.9404621E4,-4.1093408E2,-3.0074582E2,3.0735E1,1.5465543E4,5.1458844E4,3.2393817E2,4.4893668E2,6.713003E2,-1.4458487E2,-5.943932E1,-2.664163E1,3.3858826E1,1.25062904E2,5.0364594E1],"split_indices":[6,6,6,6,6,6,6,0,0,17,6,13,0,0,0,0,0,0,0,0,0],"split_type":[0,0,0,0,0,0,0,0,0,0,0,0,0,0,0,0,0,0,0,0,0],"sum_hessian":[2.67E2,1.58E2,1.09E2,8.8E1,7E1,6.2E1,4.7E1,3.5E1,5.3E1,4.3E1,2.7E1,4E1,2.2E1,1.9E1,2.8E1,2.4E1,1.9E1,1.9E1,8E0,3.7E1,3E0],"tree_param":{"num_deleted":"0","num_feature":"18","num_nodes":"21","size_leaf_vector":"1"}},{"base_weights":[-7.180162E1,-4.555073E3,7.1710957E3,-6.528774E3,-1.6986223E3,4.0683037E3,6.016926E2,-4.0179114E2,-5.7235615E3,-2.7132866E3,-3.3458057E2,2.3852324E3,3.3329022E2,-3.0813852E2,-2.2235503E2,-2.991374E2,-1.1432483E2,-2.2037313E1,2.4609968E1,1.2411694E2,4.3319366E1],"categories":[],"categories_nodes":[],"categories_segments":[],"categories_sizes":[],"default_left":[0,0,0,0,0,0,0,0,0,0,0,0,0,0,0,0,0,0,0,0,0],"id":5,"left_children":[1,3,5,7,9,11,-1,-1,13,15,17,19,-1,-1,-1,-1,-1,-1,-1,-1,-1],"loss_changes":[8.832543E9,9.360563E8,1.5202048E9,7.414093E7,9.597501E7,2.6826522E8,0E0,0E0,1.0715392E7,4.213453E7,2.9379755E6,3.89608E6,0E0,0E0,0E0,0E0,0E0,0E0,0E0,0E0,0E0],"parents":[2147483647,0,0,1,1,2,2,3,3,4,4,5,5,8,8,9,9,10,10,11,11],"right_children":[2,4,6,8,10,12,-1,-1,14,16,18,20,-1,-1,-1,-1,-1,-1,-1,-1,-1],"split_conditions":[1.6374055E4,9.601262E3,2.5713488E4,6.183432E3,1.382195E4,2.272107E4,6.016926E2,-4.0179114E2,8.428113E3,1.2E-1,1.1748643E-2,1.6922511E-2,3.3329022E2,-3.0813852E2,-2.2235503E2,-2.991374E2,-1.1432483E2,-2.2037313E1,2.4609968E1,1.2411694E2,4.3319366E1],"split_indices":[6,6,6,6,6,6,0,0,6,2,11,11,0,0,0,0,0,0,0,0,0],"split_type":[0,0,0,0,0,0,0,0,0,0,0,0,0,0,0,0,0,0,0,0,0],"sum_hessian":[2.7E2,1.67E2,1.03E2,9.8E1,6.9E1,6.4E1,3.9E1,3.1E1,6.7E1,3.9E1,3E1,4E1,2.4E1,4.7E1,2E1,3E0,3.6E1,2.7E1,3E0,3.7E1,3E0],"tree_param":{"num_deleted":"0","num_feature":"18","num_nodes":"21","size_leaf_vector":"1"}},{"base_weights":[-1.6302649E2,-3.00152E3,9.74966E3,-6.158376E3,5.814017E-1,5.8954047E2,3.7597986E2,-2.1516776E2,-6.924752E3,-1.5956254E3,2.0131796E3,-3.8902637E2,-2.985853E2,-1.1158968E2,-2.2658646E1,4.3061092E1,1.299423E2],"categories":[],"categories_nodes":[],"categories_segments":[],"categories_sizes":[],"default_left":[0,0,0,0,0,0,0,0,0,0,0,0,0,0,0,0,0],"id":6,"left_children":[1,3,5,7,9,-1,-1,-1,11,13,15,-1,-1,-1,-1,-1,-1],"loss_changes":[7.2042225E9,1.8859674E9,1.7079398E8,1.0809856E8,3.3410218E8,0E0,0E0,0E0,8.18048E6,4.114229E7,2.8796E7,0E0,0E0,0E0,0E0,0E0,0E0],"parents":[2147483647,0,0,1,1,2,2,3,3,4,4,8,8,9,9,10,10],"right_children":[2,4,6,8,10,-1,-1,-1,12,14,16,-1,-1,-1,-1,-1,-1],"split_conditions":[3E0,1.1478783E2,1.3551831E-1,1.2111442E-1,1.5557803E2,5.8954047E2,3.7597986E2,-2.1516776E2,4.705693E1,1.2626087E2,2.0937129E4,-3.8902637E2,-2.985853E2,-1.1158968E2,-2.2658646E1,4.3061092E1,1.299423E2],"split_indices":[0,3,8,8,3,0,0,0,3,3,5,0,0,0,0,0,0],"split_type":[0,0,0,0,0,0,0,0,0,0,0,0,0,0,0,0,0],"sum_hessian":[2.54E2,1.98E2,5.6E1,9.6E1,1.02E2,2.7E1,2.9E1,3E1,6.6E1,5.7E1,4.5E1,3.1E1,3.5E1,3.6E1,2.1E1,1.6E1,2.9E1],"tree_param":{"num_deleted":"0","num_feature":"18","num_nodes":"17","size_leaf_vector":"1"}},{"base_weights":[5.4405323E1,-3.0898616E3,8.985159E3,-5.7567627E3,5.059232E1,3.039538E2,5.470045E2,-6.453922E3,-2.0094928E2,-1.3233441E3,1.6850287E3,-3.7113605E2,-2.887257E2,-2.8373508E2,-4.624287E1,1.06240654E2,2.0424597E1],"categories":[],"categories_nodes":[],"categories_segments":[],"categories_sizes":[],"default_left":[0,0,0,0,0,0,0,0,0,0,0,0,0,0,0,0,0],"id":7,"left_children":[1,3,5,7,9,-1,-1,11,-1,13,15,-1,-1,-1,-1,-1,-1],"loss_changes":[7.441062E9,1.6418468E9,3.2549427E8,1.0248038E8,2.0658058E8,0E0,0E0,5.843712E6,0E0,8.144896E7,2.2710608E7,0E0,0E0,0E0,0E0,0E0,0E0],"parents":[2147483647,0,0,1,1,2,2,3,3,4,4,7,7,9,9,10,10],"right_children":[2,4,6,8,10,-1,-1,12,-1,14,16,-1,-1,-1,-1,-1,-1],"split_conditions":[1.9349453E4,1.1790628E4,2.66207E4,7.986396E3,1.8522805E4,3.039538E2,5.470045E2,5.7630386E3,-2.0094928E2,1.2E-1,1.06759444E-1,-3.7113605E2,-2.887257E2,-2.8373508E2,-4.624287E1,1.06240654E2,2.0424597E1],"split_indices":[6,6,6,6,5,0,0,6,0,2,7,0,0,0,0,0,0],"split_type":[0,0,0,0,0,0,0,0,0,0,0,0,0,0,0,0,0],"sum_hessian":[2.63E2,1.95E2,6.8E1,1.05E2,9E1,2.9E1,3.9E1,7.3E1,3.2E1,4.9E1,4.1E1,2.6E1,4.7E1,3E0,4.6E1,3E1,1.1E1],"tree_param":{"num_deleted":"0","num_feature":"18","num_nodes":"17","size_leaf_vector":"1"}},{"base_weights":[-1.0621958E2,-3.8851187E3,6.1030547E3,-5.722812E3,-1.2876421E3,2.8333337E3,9.31495E3,-3.3837314E2,-4.7489106E3,-2.065671E3,-1.7009415E2,1.9386841E3,2.4976884E2,3.548771E2,5.501759E2,-2.50981E2,-1.7141179E2,-8.4092674E1,-1.8174083E2,4.5205685E1,-1.6440931E1,1.0227223E2,4.2315395E1],"categories":[],"categories_nodes":[],"categories_segments":[],"categories_sizes":[],"default_left":[0,0,0,0,0,0,0,0,0,0,0,0,0,0,0,0,0,0,0,0,0,0,0],"id":8,"left_children":[1,3,5,7,9,11,13,-1,15,17,19,21,-1,-1,-1,-1,-1,-1,-1,-1,-1,-1,-1],"loss_changes":[6.0774794E9,7.611423E8,1.0028027E9,6.349491E7,5.877335E7,8.702842E7,1.0536781E8,0E0,1.381632E6,1.7976864E7,5.241822E6,2.583664E6,0E0,0E0,0E0,0E0,0E0,0E0,0E0,0E0,0E0,0E0,0E0],"parents":[2147483647,0,0,1,1,2,2,3,3,4,4,5,5,6,6,8,8,9,9,10,10,11,11],"right_children":[2,4,6,8,10,12,14,-1,16,18,20,22,-1,-1,-1,-1,-1,-1,-1,-1,-1,-1,-1],"split_conditions":[1.7405344E4,1.0110095E4,2.4565426E4,6.7141025E3,1.382195E4,2.0047475E4,2.9404621E4,-3.3837314E2,8.911744E3,1.2440825E2,-1.2590357E-2,4.138171E4,2.4976884E2,3.548771E2,5.501759E2,-2.50981E2,-1.7141179E2,-8.4092674E1,-1.8174083E2,4.5205685E1,-1.6440931E1,1.0227223E2,4.2315395E1],"split_indices":[6,6,6,6,6,6,6,0,6,4,11,9,0,0,0,0,0,0,0,0,0,0,0],"split_type":[0,0,0,0,0,0,0,0,0,0,0,0,0,0,0,0,0,0,0,0,0,0,0],"sum_hessian":[2.57E2,1.6E2,9.7E1,9.3E1,6.7E1,4.9E1,4.8E1,4.2E1,5.1E1,3.9E1,2.8E1,3.6E1,1.3E1,2.3E1,2.5E1,4E1,1.1E1,3.3E1,6E0,3E0,2.5E1,3.2E1,4E0],"tree_param":{"num_deleted":"0","num_feature":"18","num_nodes":"23","size_leaf_vector":"1"}},{"base_weights":[-1.0253956E2,-3.4841047E3,6.12981E3,-5.4064785E3,-8.253941E2,3.5532878E3,9.824318E3,-3.3802396E2,-4.7397236E3,-2.6627972E2,-5.444046E2,2.1078542E3,2.7799603E2,5.1986346E2,3.259658E2,-2.5387889E2,-1.8094757E2,-7.801257E1,1.8684498E1,1.12528564E2,2.5524397E1],"categories":[],"categories_nodes":[],"categories_segments":[],"categories_sizes":[],"default_left":[0,0,0,0,0,0,0,0,0,0,0,0,0,0,0,0,0,0,0,0,0],"id":9,"left_children":[1,3,5,7,9,11,13,-1,15,-1,17,19,-1,-1,-1,-1,-1,-1,-1,-1,-1],"loss_changes":[5.332281E9,8.337467E8,8.1227955E8,5.3720576E7,8.561576E7,1.4490432E8,3.85024E5,0E0,6.993792E6,0E0,6.307028E7,6.373872E6,0E0,0E0,0E0,0E0,0E0,0E0,0E0,0E0,0E0],"parents":[2147483647,0,0,1,1,2,2,3,3,4,4,5,5,6,6,8,8,10,10,11,11],"right_children":[2,4,6,8,10,12,14,-1,16,-1,18,20,-1,-1,-1,-1,-1,-1,-1,-1,-1],"split_conditions":[1.7843795E4,1.0315958E4,2.5770225E4,5.7630386E3,1.2E-1,2.272107E4,1.04893096E-1,-3.3802396E2,8.429551E3,-2.6627972E2,1.3784774E4,1.06246136E-1,2.7799603E2,5.1986346E2,3.259658E2,-2.5387889E2,-1.8094757E2,-7.801257E1,1.8684498E1,1.12528564E2,2.5524397E1],"split_indices":[6,6,6,6,2,6,7,0,6,0,6,7,0,0,0,0,0,0,0,0,0],"split_type":[0,0,0,0,0,0,0,0,0,0,0,0,0,0,0,0,0,0,0,0,0],"sum_hessian":[2.51E2,1.63E2,8.8E1,9.4E1,6.9E1,5.3E1,3.5E1,2.8E1,6.6E1,3E0,6.6E1,3.2E1,2.1E1,2.8E1,7E0,4.8E1,1.8E1,3.1E1,3.5E1,2.9E1,3E0],"tree_param":{"num_deleted":"0","num_feature":"18","num_nodes":"21","size_leaf_vector":"1"}},{"base_weights":[-1.569251E1,-3.390815E3,5.563751E3,-5.092542E3,-1.02337683E3,2.4428308E3,8.1674956E3,-3.1473178E2,-4.401119E3,-2.5629425E2,-7.592327E2,1.8522002E3,2.0768594E2,4.8289493E2,2.9017892E2,-1.8256027E2,-2.399198E2,-7.2323654E1,8.0796146E-1,1.0404529E2,1.809194E1],"categories":[],"categories_nodes":[],"categories_segments":[],"categories_sizes":[],"default_left":[0,0,0,0,0,0,0,0,0,0,0,0,0,0,0,0,0,0,0,0,0],"id":10,"left_children":[1,3,5,7,9,11,13,-1,15,-1,17,19,-1,-1,-1,-1,-1,-1,-1,-1,-1],"loss_changes":[4.896173E9,6.4744256E8,7.764027E8,5.0424064E7,7.087974E7,3.8789024E7,1.3067699E8,0E0,1.248512E6,0E0,3.5193636E7,1.1517536E7,0E0,0E0,0E0,0E0,0E0,0E0,0E0,0E0,0E0],"parents":[2147483647,0,0,1,1,2,2,3,3,4,4,5,5,6,6,8,8,10,10,11,11],"right_children":[2,4,6,8,10,12,14,-1,16,-1,18,20,-1,-1,-1,-1,-1,-1,-1,-1,-1],"split_conditions":[2.0937129E4,1.1096156E2,2.4570055E2,4.705693E1,1.2E-1,1.9705501E2,1.04893096E-1,-3.1473178E2,1.2082843E-1,-2.5629425E2,1.27236046E2,1.06759444E-1,2.0768594E2,4.8289493E2,2.9017892E2,-1.8256027E2,-2.399198E2,-7.2323654E1,8.0796146E-1,1.0404529E2,1.809194E1],"split_indices":[5,3,3,3,2,3,7,0,8,0,3,7,0,0,0,0,0,0,0,0,0],"split_type":[0,0,0,0,0,0,0,0,0,0,0,0,0,0,0,0,0,0,0,0,0],"sum_hessian":[2.58E2,1.61E2,9.7E1,9.3E1,6.8E1,4.5E1,5.2E1,3.1E1,6.2E1,3E0,6.5E1,3.5E1,1E1,3E1,2.2E1,2.5E1,3.7E1,3.4E1,3.1E1,3E1,5E0],"tree_param":{"num_deleted":"0","num_feature":"18","num_nodes":"21","size_leaf_vector":"1"}},{"base_weights":[-3.180518E1,-3.1555457E3,5.7648213E3,-4.90422E3,-9.4511395E2,3.1190225E3,8.459994E3,-5.3406353E3,-1.671898E2,-1.5241995E3,-2.5675703E1,9.880694E1,2.34963E2,3.369458E2,4.806717E2,-3.040313E2,-2.3741756E2,-1.25102196E2,-5.7269356E1,-2.110728E1,2.62625E1],"categories":[],"categories_nodes":[],"categories_segments":[],"categories_sizes":[],"default_left":[0,0,0,0,0,0,0,0,0,0,0,0,0,0,0,0,0,0,0,0,0],"id":11,"left_children":[1,3,5,7,9,11,13,15,-1,17,19,-1,-1,-1,-1,-1,-1,-1,-1,-1,-1],"loss_changes":[4.653623E9,6.4087386E8,6.1539174E8,4.5473536E7,3.989321E7,7.559622E7,2.2561024E7,2.244224E6,0E0,1.4173128E7,6.7744845E6,0E0,0E0,0E0,0E0,0E0,0E0,0E0,0E0,0E0,0E0],"parents":[2147483647,0,0,1,1,2,2,3,3,4,4,5,5,6,6,7,7,9,9,10,10],"right_children":[2,4,6,8,10,12,14,16,-1,18,20,-1,-1,-1,-1,-1,-1,-1,-1,-1,-1],"split_conditions":[1.7569615E4,1.0155628E4,2.497053E4,8.197212E3,1.4161507E4,2.272107E4,3.0807732E4,5.7630386E3,-1.671898E2,2.3225783E4,1.5557803E2,9.880694E1,2.34963E2,3.369458E2,4.806717E2,-3.040313E2,-2.3741756E2,-1.25102196E2,-5.7269356E1,-2.110728E1,2.62625E1],"split_indices":[6,6,6,6,6,6,6,6,0,13,3,0,0,0,0,0,0,0,0,0,0],"split_type":[0,0,0,0,0,0,0,0,0,0,0,0,0,0,0,0,0,0,0,0,0],"sum_hessian":[2.55E2,1.66E2,8.9E1,9.2E1,7.4E1,4.6E1,4.3E1,7E1,2.2E1,4.5E1,2.9E1,2.8E1,1.8E1,2E1,2.3E1,2.7E1,4.3E1,1.1E1,3.4E1,1.7E1,1.2E1],"tree_param":{"num_deleted":"0","num_feature":"18","num_nodes":"21","size_leaf_vector":"1"}},{"base_weights":[1.9510197E2,-2.084485E3,7.381569E3,-4.616248E3,2.3215517E2,2.7540076E2,4.629377E2,-5.1269956E3,-1.5781345E2,-1.1522361E3,1.5871564E3,-2.9474863E2,-2.2907315E2,-7.7524376E1,-1.685025E1,3.647484E1,9.923388E1],"categories":[],"categories_nodes":[],"categories_segments":[],"categories_sizes":[],"default_left":[0,0,0,0,0,0,0,0,0,0,0,0,0,0,0,0,0],"id":12,"left_children":[1,3,5,7,9,-1,-1,11,-1,13,15,-1,-1,-1,-1,-1,-1],"loss_changes":[4.422193E9,1.2034348E9,1.7760691E8,5.6893824E7,2.0442083E8,0E0,0E0,2.73728E6,0E0,1.7009304E7,1.7303488E7,0E0,0E0,0E0,0E0,0E0,0E0],"parents":[2147483647,0,0,1,1,2,2,3,3,4,4,7,7,9,9,10,10],"right_children":[2,4,6,8,10,-1,-1,12,-1,14,16,-1,-1,-1,-1,-1,-1],"split_conditions":[3E0,1.1478783E2,2.9404621E4,8.197212E3,1.5372293E4,2.7540076E2,4.629377E2,5.394062E3,-1.5781345E2,1.2626087E2,1.7843795E4,-2.9474863E2,-2.2907315E2,-7.7524376E1,-1.685025E1,3.647484E1,9.923388E1],"split_indices":[0,3,6,6,6,0,0,6,0,3,6,0,0,0,0,0,0],"split_type":[0,0,0,0,0,0,0,0,0,0,0,0,0,0,0,0,0],"sum_hessian":[2.68E2,2.04E2,6.4E1,9.7E1,1.07E2,3.4E1,3E1,7E1,2.7E1,5.3E1,5.4E1,2.5E1,4.5E1,3.5E1,1.8E1,1.8E1,3.6E1],"tree_param":{"num_deleted":"0","num_feature":"18","num_nodes":"17","size_leaf_vector":"1"}},{"base_weights":[3.5428352E1,-2.018953E3,6.9389175E3,-4.3452256E3,2.3792696E2,4.236231E2,2.4144673E2,-2.5319547E2,-3.3758433E3,-1.0909595E3,1.562326E3,-1.893805E2,-1.2956741E2,-7.691315E1,-1.04777565E1,9.356403E1,1.0627777E1],"categories":[],"categories_nodes":[],"categories_segments":[],"categories_sizes":[],"default_left":[0,0,0,0,0,0,0,0,0,0,0,0,0,0,0,0,0],"id":13,"left_children":[1,3,5,7,9,-1,-1,-1,11,13,15,-1,-1,-1,-1,-1,-1],"loss_changes":[3.7723456E9,1.0773085E9,1.5646669E8,5.3268736E7,1.8650195E8,0E0,0E0,0E0,5.043648E6,2.0573E7,2.1703976E7,0E0,0E0,0E0,0E0,0E0,0E0],"parents":[2147483647,0,0,1,1,2,2,3,3,4,4,8,8,9,9,10,10],"right_children":[2,4,6,8,10,-1,-1,-1,12,14,16,-1,-1,-1,-1,-1,-1],"split_conditions":[3E0,1.1725638E4,1.0565877E-1,7.27896E3,1.5557803E2,4.236231E2,2.4144673E2,-2.5319547E2,8.831041E3,1.2626087E2,1.08519495E-1,-1.893805E2,-1.2956741E2,-7.691315E1,-1.04777565E1,9.356403E1,1.0627777E1],"split_indices":[0,6,7,6,3,0,0,0,6,3,7,0,0,0,0,0,0],"split_type":[0,0,0,0,0,0,0,0,0,0,0,0,0,0,0,0,0],"sum_hessian":[2.64E2,2.04E2,6E1,1E2,1.04E2,3.3E1,2.7E1,5.5E1,4.5E1,5.2E1,5.2E1,2.7E1,1.8E1,3.4E1,1.8E1,4.2E1,1E1],"tree_param":{"num_deleted":"0","num_feature":"18","num_nodes":"17","size_leaf_vector":"1"}},{"base_weights":[4.601857E1,-1.9056731E3,6.6243677E3,-4.097062E3,1.0382201E2,3.9235364E2,2.2504387E2,-4.521054E3,-1.3582127E2,-9.73122E2,1.6810349E3,-2.7172845E2,-2.0196593E2,-7.73337E1,-1.3783374E1,7.008479E1,1.4985954E2],"categories":[],"categories_nodes":[],"categories_segments":[],"categories_sizes":[],"default_left":[0,0,0,0,0,0,0,0,0,0,0,0,0,0,0,0,0],"id":14,"left_children":[1,3,5,7,9,-1,-1,11,-1,13,15,-1,-1,-1,-1,-1,-1],"loss_changes":[3.4791299E9,9.2077504E8,1.2565683E8,4.625613E7,1.8847862E8,0E0,0E0,1.1052416E7,0E0,2.5975184E7,1.2342832E7,0E0,0E0,0E0,0E0,0E0,0E0],"parents":[2147483647,0,0,1,1,2,2,3,3,4,4,7,7,9,9,10,10],"right_children":[2,4,6,8,10,-1,-1,12,-1,14,16,-1,-1,-1,-1,-1,-1],"split_conditions":[3E0,1.3788915E4,1.07414834E-1,8.2080625E3,1.6374055E4,3.9235364E2,2.2504387E2,5.394062E3,-1.3582127E2,1.382195E4,2.0047475E4,-2.7172845E2,-2.0196593E2,-7.73337E1,-1.3783374E1,7.008479E1,1.4985954E2],"split_indices":[0,5,7,6,6,0,0,6,0,6,6,0,0,0,0,0,0],"split_type":[0,0,0,0,0,0,0,0,0,0,0,0,0,0,0,0,0],"sum_hessian":[2.69E2,2.08E2,6.1E1,9.9E1,1.09E2,3.7E1,2.4E1,7.4E1,2.5E1,6.5E1,4.4E1,2.2E1,5.2E1,3.5E1,3E1,3.8E1,6E0],"tree_param":{"num_deleted":"0","num_feature":"18","num_nodes":"17","size_leaf_vector":"1"}},{"base_weights":[-1.1943029E2,-1.8745986E3,6.4959243E3,-3.406695E3,8.91712E2,3.8333517E2,2.1690237E2,-4.175388E3,-1.9104347E3,-2.4006346E2,1.5569177E3,-2.5254454E2,-1.822304E2,-8.1151924E1,-2.3330045E2,-2.0959703E1,4.5579395E0,6.506045E1,1.43437E2],"categories":[],"categories_nodes":[],"categories_segments":[],"categories_sizes":[],"default_left":[0,0,0,0,0,0,0,0,0,0,0,0,0,0,0,0,0,0,0],"id":15,"left_children":[1,3,5,7,9,-1,-1,11,13,15,17,-1,-1,-1,-1,-1,-1,-1,-1],"loss_changes":[3.100719E9,8.9730963E8,1.0821811E8,1.4844493E8,5.7591516E7,0E0,0E0,2.2948992E7,3.0439456E7,1.7588751E6,1.2368096E7,0E0,0E0,0E0,0E0,0E0,0E0,0E0,0E0],"parents":[2147483647,0,0,1,1,2,2,3,3,4,4,7,7,8,8,9,9,10,10],"right_children":[2,4,6,8,10,-1,-1,12,14,16,18,-1,-1,-1,-1,-1,-1,-1,-1],"split_conditions":[3E0,1.382195E4,1.0565877E-1,8.911744E3,1.6374055E4,3.8333517E2,2.1690237E2,5.870966E3,1.3784774E4,8.8031656E-1,2.0047475E4,-2.5254454E2,-1.822304E2,-8.1151924E1,-2.3330045E2,-2.0959703E1,4.5579395E0,6.506045E1,1.43437E2],"split_indices":[0,6,7,6,6,0,0,6,6,12,6,0,0,0,0,0,0,0,0],"split_type":[0,0,0,0,0,0,0,0,0,0,0,0,0,0,0,0,0,0,0],"sum_hessian":[2.65E2,2.1E2,5.5E1,1.35E2,7.5E1,3.4E1,2.1E1,8.8E1,4.7E1,2.8E1,4.7E1,3E1,5.8E1,4.4E1,3E0,1.8E1,1E1,4.1E1,6E0],"tree_param":{"num_deleted":"0","num_feature":"18","num_nodes":"19","size_leaf_vector":"1"}},{"base_weights":[-1.1346411E2,-2.8141108E3,3.6830605E3,-4.024823E3,-1.3457115E3,1.6743898E3,6.2845557E3,-2.3622493E2,-1.7328667E2,-1.7150215E3,-2.9974988E2,1.1993668E3,1.5730835E2,2.4234624E2,3.818229E2,-7.418132E1,-2.08934E2,-2.6358094E0,-4.3367958E1,7.289813E1,1.2948733E1],"categories":[],"categories_nodes":[],"categories_segments":[],"categories_sizes":[],"default_left":[0,0,0,0,0,0,0,0,0,0,0,0,0,0,0,0,0,0,0,0,0],"id":16,"left_children":[1,3,5,7,9,11,13,-1,-1,15,17,19,-1,-1,-1,-1,-1,-1,-1,-1,-1],"loss_changes":[2.7376817E9,2.719214E8,5.695123E8,1.6875648E7,2.7298152E7,4.097035E7,5.627507E7,0E0,0E0,2.4014E7,2.7585568E6,1.1781328E7,0E0,0E0,0E0,0E0,0E0,0E0,0E0,0E0,0E0],"parents":[2147483647,0,0,1,1,2,2,3,3,4,4,5,5,6,6,9,9,10,10,11,11],"right_children":[2,4,6,8,10,12,14,-1,-1,16,18,20,-1,-1,-1,-1,-1,-1,-1,-1,-1],"split_conditions":[1.8522805E4,9.329003E3,2.4583852E4,6.183432E3,1.382195E4,2.0047475E4,3.0807732E4,-2.3622493E2,-1.7328667E2,1.5044919E4,1.8010295E4,1.1004622E-1,1.5730835E2,2.4234624E2,3.818229E2,-7.418132E1,-2.08934E2,-2.6358094E0,-4.3367958E1,7.289813E1,1.2948733E1],"split_indices":[5,6,6,6,6,6,6,0,0,5,5,7,0,0,0,0,0,0,0,0,0],"split_type":[0,0,0,0,0,0,0,0,0,0,0,0,0,0,0,0,0,0,0,0,0],"sum_hessian":[2.65E2,1.55E2,1.1E2,8.4E1,7.1E1,6.3E1,4.7E1,3.4E1,5E1,5.2E1,1.9E1,4.9E1,1.4E1,2.5E1,2.2E1,4.9E1,3E0,1.4E1,5E0,3.8E1,1.1E1],"tree_param":{"num_deleted":"0","num_feature":"18","num_nodes":"21","size_leaf_vector":"1"}},{"base_weights":[-1.3632153E2,-2.5424404E3,3.7780356E3,-3.6790156E3,-8.5071674E2,1.9991257E3,6.2457803E3,-2.290709E2,-3.1336062E3,-1.5285832E2,-6.590544E2,1.2706702E3,1.6780379E2,3.3533167E2,1.9309996E2,-1.6464783E2,-1.0909727E2,-6.662994E1,-9.929353E0,3.7256435E1,7.22158E1],"categories":[],"categories_nodes":[],"categories_segments":[],"categories_sizes":[],"default_left":[0,0,0,0,0,0,0,0,0,0,0,0,0,0,0,0,0,0,0,0,0],"id":17,"left_children":[1,3,5,7,9,11,13,-1,15,-1,17,19,-1,-1,-1,-1,-1,-1,-1,-1,-1],"loss_changes":[2.448973E9,3.0643603E8,4.2211264E8,3.2892032E7,2.5895752E7,5.405523E7,1.9139328E7,0E0,2.368192E6,0E0,1.8964206E7,2.5739E6,0E0,0E0,0E0,0E0,0E0,0E0,0E0,0E0,0E0],"parents":[2147483647,0,0,1,1,2,2,3,3,4,4,5,5,6,6,8,8,10,10,11,11],"right_children":[2,4,6,8,10,12,14,-1,16,-1,18,20,-1,-1,-1,-1,-1,-1,-1,-1,-1],"split_conditions":[1.6374055E4,9.601262E3,2.497053E4,6.183432E3,1E0,2.0047475E4,1.07414834E-1,-2.290709E2,8.911744E3,-1.5285832E2,1.3053057E4,1.0157906E-1,1.6780379E2,3.3533167E2,1.9309996E2,-1.6464783E2,-1.0909727E2,-6.662994E1,-9.929353E0,3.7256435E1,7.22158E1],"split_indices":[6,6,6,6,0,6,7,0,6,0,6,7,0,0,0,0,0,0,0,0,0],"split_type":[0,0,0,0,0,0,0,0,0,0,0,0,0,0,0,0,0,0,0,0,0],"sum_hessian":[2.58E2,1.6E2,9.8E1,9.5E1,6.5E1,5.8E1,4E1,3.3E1,6.2E1,4E0,6.1E1,3.9E1,1.9E1,3.2E1,8E0,5.1E1,1.1E1,2.4E1,3.7E1,1.1E1,2.8E1],"tree_param":{"num_deleted":"0","num_feature":"18","num_nodes":"21","size_leaf_vector":"1"}},{"base_weights":[1.3501923E2,-1.6123972E3,5.563376E3,-2.8912844E3,7.3686E2,3.355042E2,1.8504828E2,-3.7270713E3,-1.8081686E3,-1.1175971E1,1.3701027E3,-2.2619629E2,-1.6705064E2,-1.2346802E2,-5.656515E1,3.205449E1,-8.692343E0,8.424292E1,4.3182823E1],"categories":[],"categories_nodes":[],"categories_segments":[],"categories_sizes":[],"default_left":[0,0,0,0,0,0,0,0,0,0,0,0,0,0,0,0,0,0,0],"id":18,"left_children":[1,3,5,7,9,-1,-1,11,13,15,17,-1,-1,-1,-1,-1,-1,-1,-1],"loss_changes":[2.5321405E9,6.0902656E8,1.1398182E8,1.1184858E8,3.412101E7,0E0,0E0,7.341888E6,2.3610768E7,3.7189622E6,4.761472E6,0E0,0E0,0E0,0E0,0E0,0E0,0E0,0E0],"parents":[2147483647,0,0,1,1,2,2,3,3,4,4,7,7,8,8,9,9,10,10],"right_children":[2,4,6,8,10,-1,-1,12,14,16,18,-1,-1,-1,-1,-1,-1,-1,-1],"split_conditions":[3E0,1.382195E4,1.0532299E-1,8.429551E3,1.7405344E4,3.355042E2,1.8504828E2,5.3784556E3,8.728296E4,-8.528741E-3,8.637047E-2,-2.2619629E2,-1.6705064E2,-1.2346802E2,-5.656515E1,3.205449E1,-8.692343E0,8.424292E1,4.3182823E1],"split_indices":[0,6,7,6,6,0,0,6,9,11,8,0,0,0,0,0,0,0,0],"split_type":[0,0,0,0,0,0,0,0,0,0,0,0,0,0,0,0,0,0,0],"sum_hessian":[2.65E2,2.01E2,6.4E1,1.3E2,7.1E1,3.8E1,2.6E1,7.2E1,5.8E1,3.3E1,3.8E1,2E1,5.2E1,2.8E1,3E1,6E0,2.7E1,2.2E1,1.6E1],"tree_param":{"num_deleted":"0","num_feature":"18","num_nodes":"19","size_leaf_vector":"1"}},{"base_weights":[5.6918583E1,-1.6257572E3,5.402569E3,-3.2800576E3,4.496413E1,3.206965E2,1.8245964E2,-3.7746245E3,-1.28803E2,-9.243327E2,1.2286633E3,-2.2120654E2,-1.6752682E2,-2.0992764E2,-3.2734604E1,1.2110811E2,4.7253227E1],"categories":[],"categories_nodes":[],"categories_segments":[],"categories_sizes":[],"default_left":[0,0,0,0,0,0,0,0,0,0,0,0,0,0,0,0,0],"id":19,"left_children":[1,3,5,7,9,-1,-1,11,-1,13,15,-1,-1,-1,-1,-1,-1],"loss_changes":[2.3294925E9,5.446312E8,8.653773E7,2.4744896E7,1.1472396E8,0E0,0E0,6.01088E5,0E0,4.580821E7,1.2941928E7,0E0,0E0,0E0,0E0,0E0,0E0],"parents":[2147483647,0,0,1,1,2,2,3,3,4,4,7,7,9,9,10,10],"right_children":[2,4,6,8,10,-1,-1,12,-1,14,16,-1,-1,-1,-1,-1,-1],"split_conditions":[3E0,1.0315958E4,1.04893096E-1,7.1856934E3,1.5557803E2,3.206965E2,1.8245964E2,5.1437935E3,-1.28803E2,1.2E-1,3.2E-1,-2.2120654E2,-1.6752682E2,-2.0992764E2,-3.2734604E1,1.2110811E2,4.7253227E1],"split_indices":[0,6,7,6,3,0,0,6,0,2,2,0,0,0,0,0,0],"split_type":[0,0,0,0,0,0,0,0,0,0,0,0,0,0,0,0,0],"sum_hessian":[2.57E2,1.96E2,6.1E1,9.8E1,9.8E1,3.7E1,2.4E1,5.5E1,4.3E1,5.4E1,4.4E1,1.8E1,3.7E1,3E0,5.1E1,7E0,3.7E1],"tree_param":{"num_deleted":"0","num_feature":"18","num_nodes":"17","size_leaf_vector":"1"}},{"base_weights":[-7.759926E1,-1.6631449E3,4.9759614E3,-3.1749663E3,-1.1754605E2,2.936064E2,1.6009264E2,-1.9477568E2,-2.7650825E3,-9.7706104E2,8.005774E2,-1.4557014E2,-1.01727264E2,-1.6061421E2,-3.807256E1,5.0065613E1,-6.7955766E0],"categories":[],"categories_nodes":[],"categories_segments":[],"categories_sizes":[],"default_left":[0,0,0,0,0,0,0,0,0,0,0,0,0,0,0,0,0],"id":20,"left_children":[1,3,5,7,9,-1,-1,-1,11,13,15,-1,-1,-1,-1,-1,-1],"loss_changes":[1.9793875E9,4.3892035E8,7.500122E7,1.7285312E7,7.4961464E7,0E0,0E0,0E0,9.17184E5,2.116848E7,8.783532E6,0E0,0E0,0E0,0E0,0E0,0E0],"parents":[2147483647,0,0,1,1,2,2,3,3,4,4,8,8,9,9,10,10],"right_children":[2,4,6,8,10,-1,-1,-1,12,14,16,-1,-1,-1,-1,-1,-1],"split_conditions":[3E0,1.3329284E4,1.07799165E-1,6.183432E3,1.4963965E4,2.936064E2,1.6009264E2,-1.9477568E2,8.634476E3,2.4E-1,1.1004622E-1,-1.4557014E2,-1.01727264E2,-1.6061421E2,-3.807256E1,5.0065613E1,-6.7955766E0],"split_indices":[0,5,7,6,6,0,0,0,6,2,7,0,0,0,0,0,0],"split_type":[0,0,0,0,0,0,0,0,0,0,0,0,0,0,0,0,0],"sum_hessian":[2.45E2,1.87E2,5.8E1,9.4E1,9.3E1,3.7E1,2.1E1,3.1E1,6.3E1,4.8E1,4.5E1,5E1,1.3E1,3E0,4.5E1,3.7E1,8E0],"tree_param":{"num_deleted":"0","num_feature":"18","num_nodes":"17","size_leaf_vector":"1"}},{"base_weights":[-3.0225922E1,-1.3617814E3,4.5419497E3,-2.951334E3,2.5234318E1,2.838253E2,1.5212895E2,-3.4196233E3,-1.1600901E2,-8.33114E2,9.802799E2,-2.0406322E2,-1.5255225E2,-1.9603233E2,-2.9884857E1,6.467672E1,8.751332E0],"categories":[],"categories_nodes":[],"categories_segments":[],"categories_sizes":[],"default_left":[0,0,0,0,0,0,0,0,0,0,0,0,0,0,0,0,0],"id":21,"left_children":[1,3,5,7,9,-1,-1,11,-1,13,15,-1,-1,-1,-1,-1,-1],"loss_changes":[1.6195328E9,4.5425005E8,8.479514E7,2.0439232E7,9.181026E7,0E0,0E0,4.72128E5,0E0,4.0540764E7,1.3142652E7,0E0,0E0,0E0,0E0,0E0,0E0],"parents":[2147483647,0,0,1,1,2,2,3,3,4,4,7,7,9,9,10,10],"right_children":[2,4,6,8,10,-1,-1,12,-1,14,16,-1,-1,-1,-1,-1,-1],"split_conditions":[3E0,1.0315958E4,1.07414834E-1,7.1856934E3,1.5557803E2,2.838253E2,1.5212895E2,5.1437935E3,-1.1600901E2,1.2E-1,1.06759444E-1,-2.0406322E2,-1.5255225E2,-1.9603233E2,-2.9884857E1,6.467672E1,8.751332E0],"split_indices":[0,6,7,6,3,0,0,6,0,2,7,0,0,0,0,0,0],"split_type":[0,0,0,0,0,0,0,0,0,0,0,0,0,0,0,0,0],"sum_hessian":[2.64E2,2.05E2,5.9E1,9.5E1,1.1E2,3.2E1,2.7E1,5.2E1,4.3E1,5.8E1,5.2E1,1.5E1,3.7E1,3E0,5.5E1,3.7E1,1.5E1],"tree_param":{"num_deleted":"0","num_feature":"18","num_nodes":"17","size_leaf_vector":"1"}},{"base_weights":[-1.3642879E1,-1.3353662E3,4.531468E3,-2.8361658E3,4.7259212E1,2.7739536E2,1.5042528E2,-1.6176408E2,-2.1628535E3,-6.472336E2,1.1572687E3,-1.1371033E2,-6.7240845E1,-1.8868112E2,-2.1580624E1,1.1113921E2,4.3194508E1],"categories":[],"categories_nodes":[],"categories_segments":[],"categories_sizes":[],"default_left":[0,0,0,0,0,0,0,0,0,0,0,0,0,0,0,0,0],"id":22,"left_children":[1,3,5,7,9,-1,-1,-1,11,13,15,-1,-1,-1,-1,-1,-1],"loss_changes":[1.5199104E9,4.068428E8,7.154419E7,1.8262592E7,8.015111E7,0E0,0E0,0E0,4.02704E5,4.1514224E7,1.0583424E7,0E0,0E0,0E0,0E0,0E0,0E0],"parents":[2147483647,0,0,1,1,2,2,3,3,4,4,8,8,9,9,10,10],"right_children":[2,4,6,8,10,-1,-1,-1,12,14,16,-1,-1,-1,-1,-1,-1],"split_conditions":[3E0,1.3788915E4,1.0399969E-1,7.333E3,1.6374055E4,2.7739536E2,1.5042528E2,-1.6176408E2,9.601262E3,1.2E-1,3.2E-1,-1.1371033E2,-6.7240845E1,-1.8868112E2,-2.1580624E1,1.1113921E2,4.3194508E1],"split_indices":[0,5,7,6,6,0,0,0,6,2,2,0,0,0,0,0,0],"split_type":[0,0,0,0,0,0,0,0,0,0,0,0,0,0,0,0,0],"sum_hessian":[2.51E2,1.95E2,5.6E1,9.3E1,1.02E2,3.2E1,2.4E1,5.6E1,3.7E1,6.3E1,3.9E1,3.1E1,6E0,3E0,6E1,7E0,3.2E1],"tree_param":{"num_deleted":"0","num_feature":"18","num_nodes":"17","size_leaf_vector":"1"}},{"base_weights":[5.572092E1,-1.499425E3,3.9644126E3,-2.6698079E3,-2.0418498E2,2.8187864E3,2.832004E2,-1.692203E2,-2.2707913E3,-6.839984E2,5.2822064E2,6.783493E1,1.59888E2,-1.2159285E2,-7.912568E1,-5.371879E1,-1.1864028E1,1.1423377E0,3.2687233E1],"categories":[],"categories_nodes":[],"categories_segments":[],"categories_sizes":[],"default_left":[0,0,0,0,0,0,0,0,0,0,0,0,0,0,0,0,0,0,0],"id":23,"left_children":[1,3,5,7,9,11,-1,-1,13,15,17,-1,-1,-1,-1,-1,-1,-1,-1],"loss_changes":[1.5377482E9,2.738373E8,1.2422477E8,1.9402112E7,3.0934692E7,2.0595296E7,0E0,0E0,3.246048E6,8.987534E6,2.205276E6,0E0,0E0,0E0,0E0,0E0,0E0,0E0,0E0],"parents":[2147483647,0,0,1,1,2,2,3,3,4,4,5,5,8,8,9,9,10,10],"right_children":[2,4,6,8,10,12,-1,-1,14,16,18,-1,-1,-1,-1,-1,-1,-1,-1],"split_conditions":[2.2624404E4,1.0315958E4,3.0807732E4,6.183432E3,1.4963965E4,2E0,2.832004E2,-1.692203E2,8.911744E3,2E0,7.3786706E-1,6.783493E1,1.59888E2,-1.2159285E2,-7.912568E1,-5.371879E1,-1.1864028E1,1.1423377E0,3.2687233E1],"split_indices":[5,6,6,6,6,0,0,0,6,1,12,0,0,0,0,0,0,0,0],"split_type":[0,0,0,0,0,0,0,0,0,0,0,0,0,0,0,0,0,0,0],"sum_hessian":[2.51E2,1.8E2,7.1E1,9.4E1,8.6E1,4.4E1,2.7E1,3.1E1,6.3E1,5.2E1,3.4E1,1E1,3.4E1,4.9E1,1.4E1,2.7E1,2.5E1,7E0,2.7E1],"tree_param":{"num_deleted":"0","num_feature":"18","num_nodes":"19","size_leaf_vector":"1"}},{"base_weights":[-2.9309574E1,-1.1935538E3,3.976975E3,-2.3575713E3,2.085901E2,2.4296867E2,1.2912671E2,-2.8098987E3,-1.5167682E3,-5.5946436E2,7.736584E2,-1.7862602E2,-1.2518273E2,-8.3635735E1,-5.0024826E1,-9.978661E1,-1.945344E1,4.7268387E1,-9.495902E0],"categories":[],"categories_nodes":[],"categories_segments":[],"categories_sizes":[],"default_left":[0,0,0,0,0,0,0,0,0,0,0,0,0,0,0,0,0,0,0],"id":24,"left_children":[1,3,5,7,9,-1,-1,11,13,15,17,-1,-1,-1,-1,-1,-1,-1,-1],"loss_changes":[1.2221271E9,3.3181232E8,6.0046464E7,3.795296E7,4.079516E7,0E0,0E0,7.636992E6,1.62712E6,9.012633E6,9.11419E6,0E0,0E0,0E0,0E0,0E0,0E0,0E0,0E0],"parents":[2147483647,0,0,1,1,2,2,3,3,4,4,7,7,8,8,9,9,10,10],"right_children":[2,4,6,8,10,-1,-1,12,14,16,18,-1,-1,-1,-1,-1,-1,-1,-1],"split_conditions":[3E0,1.2477614E4,1.0901604E-1,8.197212E3,1.5100483E4,2.4296867E2,1.2912671E2,5.1437935E3,3.53226E1,2.4E-1,1.1004622E-1,-1.7862602E2,-1.2518273E2,-8.3635735E1,-5.0024826E1,-9.978661E1,-1.945344E1,4.7268387E1,-9.495902E0],"split_indices":[0,6,7,6,6,0,0,6,17,2,7,0,0,0,0,0,0,0,0],"split_type":[0,0,0,0,0,0,0,0,0,0,0,0,0,0,0,0,0,0,0],"sum_hessian":[2.6E2,2.02E2,5.8E1,1.1E2,9.2E1,3.4E1,2.4E1,7E1,4E1,3.9E1,5.3E1,1.7E1,5.3E1,2.9E1,1.1E1,3E0,3.6E1,4.5E1,8E0],"tree_param":{"num_deleted":"0","num_feature":"18","num_nodes":"19","size_leaf_vector":"1"}},{"base_weights":[-7.3722244E1,-1.4305525E3,3.109875E3,-2.4111746E3,-2.4187035E2,1.8704082E3,4.333566E3,-2.6766584E3,-8.6509384E1,-9.5323535E2,2.5526256E2,1.0459459E3,1.22258484E2,1.6809763E2,2.615252E2,-1.7223955E2,-1.2264074E2,-3.1083368E1,-1.1190253E2,-3.0345972E0,2.4449446E1,6.581888E1,-1.4862093E1],"categories":[],"categories_nodes":[],"categories_segments":[],"categories_sizes":[],"default_left":[0,0,0,0,0,0,0,0,0,0,0,0,0,0,0,0,0,0,0,0,0,0,0],"id":25,"left_children":[1,3,5,7,9,11,13,15,-1,17,19,21,-1,-1,-1,-1,-1,-1,-1,-1,-1,-1,-1],"loss_changes":[1.170741E9,2.2088966E8,1.1474848E8,1.4170688E7,3.1010334E7,1.7344624E7,1.72736E7,4.101728E6,0E0,1.394452E7,3.8697595E6,7.292952E6,0E0,0E0,0E0,0E0,0E0,0E0,0E0,0E0,0E0,0E0,0E0],"parents":[2147483647,0,0,1,1,2,2,3,3,4,4,5,5,6,6,7,7,9,9,10,10,11,11],"right_children":[2,4,6,8,10,12,14,16,-1,18,20,22,-1,-1,-1,-1,-1,-1,-1,-1,-1,-1,-1],"split_conditions":[2.2495236E4,1.3788915E4,2.5770225E4,7.917893E3,1.3964112E4,2.272107E4,3.1425402E4,4.7499087E3,-8.6509384E1,1.24730385E2,1.5557803E2,1.9078607E2,1.22258484E2,1.6809763E2,2.615252E2,-1.7223955E2,-1.2264074E2,-3.1083368E1,-1.1190253E2,-3.0345972E0,2.4449446E1,6.581888E1,-1.4862093E1],"split_indices":[5,5,6,6,6,6,6,6,0,4,3,3,0,0,0,0,0,0,0,0,0,0,0],"split_type":[0,0,0,0,0,0,0,0,0,0,0,0,0,0,0,0,0,0,0,0,0,0,0],"sum_hessian":[2.69E2,1.89E2,8E1,1.03E2,8.6E1,4.1E1,3.9E1,7.2E1,3.1E1,3.5E1,5.1E1,1.8E1,2.3E1,2.1E1,1.8E1,1.3E1,5.9E1,2.9E1,6E0,2.2E1,2.9E1,1.5E1,3E0],"tree_param":{"num_deleted":"0","num_feature":"18","num_nodes":"23","size_leaf_vector":"1"}},{"base_weights":[-9.504439E1,-1.4980823E3,2.7439976E3,-2.326352E3,-3.558459E2,1.4470258E3,4.0676394E3,-1.5113084E2,-2.0261102E3,-1.7217601E2,-1.8178229E2,1.0071494E3,1.0690767E2,1.621931E2,2.4263927E2,-1.1106343E2,-7.864375E1,1.3334746E2,-1.7098574E1,1.5143569E1,5.6794308E1],"categories":[],"categories_nodes":[],"categories_segments":[],"categories_sizes":[],"default_left":[0,0,0,0,0,0,0,0,0,0,0,0,0,0,0,0,0,0,0,0,0],"id":26,"left_children":[1,3,5,7,9,11,13,-1,15,-1,17,19,-1,-1,-1,-1,-1,-1,-1,-1,-1],"loss_changes":[1.05968064E9,1.6757418E8,1.451854E8,1.5407232E7,4.021999E7,1.1830728E7,1.206912E7,0E0,3.139776E6,0E0,3.422431E7,2.375822E6,0E0,0E0,0E0,0E0,0E0,0E0,0E0,0E0,0E0],"parents":[2147483647,0,0,1,1,2,2,3,3,4,4,5,5,6,6,8,8,10,10,11,11],"right_children":[2,4,6,8,10,12,14,-1,16,-1,18,20,-1,-1,-1,-1,-1,-1,-1,-1,-1],"split_conditions":[1.7843795E4,1.0315958E4,2.5157867E4,5.5788896E3,1.2E-1,2.272107E4,3.1425402E4,-1.5113084E2,8.281915E3,-1.7217601E2,2.4E-1,5E0,1.0690767E2,1.621931E2,2.4263927E2,-1.1106343E2,-7.864375E1,1.3334746E2,-1.7098574E1,1.5143569E1,5.6794308E1],"split_indices":[6,6,6,6,2,6,6,0,6,0,2,15,0,0,0,0,0,0,0,0,0],"split_type":[0,0,0,0,0,0,0,0,0,0,0,0,0,0,0,0,0,0,0,0,0],"sum_hessian":[2.64E2,1.77E2,8.7E1,1.02E2,7.5E1,4.5E1,4.2E1,2.8E1,7.4E1,3E0,7.2E1,2.9E1,1.6E1,2.3E1,1.9E1,4.9E1,2.5E1,3E0,6.9E1,5E0,2.4E1],"tree_param":{"num_deleted":"0","num_feature":"18","num_nodes":"21","size_leaf_vector":"1"}},{"base_weights":[8.374792E1,-1.0279325E3,3.5911824E3,-1.8351215E3,4.236071E2,2.7238057E3,2.3770605E2,-2.2600117E3,-1.0621816E3,-1.5864436E2,8.3352075E2,1.1120492E2,1.7286343E2,-1.3948471E2,-1.0237881E2,-1.7344275E2,-4.123244E1,-1.7140617E1,8.075715E0,4.70566E1,-2.2547323E1],"categories":[],"categories_nodes":[],"categories_segments":[],"categories_sizes":[],"default_left":[0,0,0,0,0,0,0,0,0,0,0,0,0,0,0,0,0,0,0,0,0],"id":27,"left_children":[1,3,5,7,9,11,-1,13,15,17,19,-1,-1,-1,-1,-1,-1,-1,-1,-1,-1],"loss_changes":[1.03696544E9,2.374542E8,5.160717E7,4.0293024E7,1.755542E7,6.604288E6,0E0,3.626848E6,2.4578844E7,1.8832395E6,6.368042E6,0E0,0E0,0E0,0E0,0E0,0E0,0E0,0E0,0E0,0E0],"parents":[2147483647,0,0,1,1,2,2,3,3,4,4,5,5,7,7,8,8,9,9,10,10],"right_children":[2,4,6,8,10,12,-1,14,16,18,20,-1,-1,-1,-1,-1,-1,-1,-1,-1,-1],"split_conditions":[3E0,1.382195E4,3.095262E4,8.911744E3,1.6374055E4,2E1,2.3770605E2,5.394062E3,1.2E-1,2.020903E6,1.6922511E-2,1.1120492E2,1.7286343E2,-1.3948471E2,-1.0237881E2,-1.7344275E2,-4.123244E1,-1.7140617E1,8.075715E0,4.70566E1,-2.2547323E1],"split_indices":[0,6,6,6,6,15,0,6,2,16,11,0,0,0,0,0,0,0,0,0,0],"split_type":[0,0,0,0,0,0,0,0,0,0,0,0,0,0,0,0,0,0,0,0,0],"sum_hessian":[2.64E2,2.01E2,6.3E1,1.29E2,7.2E1,3.8E1,2.5E1,8.2E1,4.7E1,3E1,4.2E1,2.5E1,1.3E1,2E1,6.2E1,3E0,4.4E1,1.9E1,1.1E1,3.9E1,3E0],"tree_param":{"num_deleted":"0","num_feature":"18","num_nodes":"21","size_leaf_vector":"1"}},{"base_weights":[2.3250013E1,-1.144499E3,2.856679E3,-1.9475016E3,1.1020328E0,1.9775908E3,2.1731273E2,-2.3356663E3,-1.4403727E3,-1.5921532E2,1.7563123E2,5.382556E1,2.2730747E3,-1.5026288E2,-1.06884056E2,-7.465653E1,-4.552534E1,1.1569385E2,9.069524E-1,1.1822225E2,6.1683514E1],"categories":[],"categories_nodes":[],"categories_segments":[],"categories_sizes":[],"default_left":[0,0,0,0,0,0,0,0,0,0,0,0,0,0,0,0,0,0,0,0,0],"id":28,"left_children":[1,3,5,7,9,11,-1,13,15,-1,17,-1,19,-1,-1,-1,-1,-1,-1,-1,-1],"loss_changes":[8.503055E8,1.6742792E8,8.961434E7,1.7698272E7,4.2810916E7,1.0599152E7,0E0,1.3968E6,1.0032E4,0E0,2.4541056E7,0E0,5.01648E5,0E0,0E0,0E0,0E0,0E0,0E0,0E0,0E0],"parents":[2147483647,0,0,1,1,2,2,3,3,4,4,5,5,7,7,8,8,10,10,12,12],"right_children":[2,4,6,8,10,12,-1,14,16,-1,18,-1,20,-1,-1,-1,-1,-1,-1,-1,-1],"split_conditions":[2.2624404E4,1.2027863E2,3.0807732E4,7.5790176E3,1.2E-1,2E0,2.1731273E2,3.8657295E1,1.9375228E5,-1.5921532E2,2.8E-1,5.382556E1,1.09325E5,-1.5026288E2,-1.06884056E2,-7.465653E1,-4.552534E1,1.1569385E2,9.069524E-1,1.1822225E2,6.1683514E1],"split_indices":[5,3,6,6,2,0,0,3,9,0,2,0,9,0,0,0,0,0,0,0,0],"split_type":[0,0,0,0,0,0,0,0,0,0,0,0,0,0,0,0,0,0,0,0,0],"sum_hessian":[2.55E2,1.81E2,7.4E1,1.06E2,7.5E1,4.8E1,2.6E1,5.8E1,4.8E1,3E0,7.2E1,1.3E1,3.5E1,1E1,4.8E1,4.2E1,6E0,4E0,6.8E1,3.1E1,4E0],"tree_param":{"num_deleted":"0","num_feature":"18","num_nodes":"21","size_leaf_vector":"1"}},{"base_weights":[-2.0863098E1,-1.0585162E3,2.9589805E3,-2.0049175E3,-6.3183434E1,2.0843818E3,2.0618016E2,-1.4505249E2,-1.806765E3,-1.5324477E2,6.254501E1,7.92264E1,1.214204E2,-9.7186104E1,-6.5688194E1,-4.1725674E1,1.7830648E1],"categories":[],"categories_nodes":[],"categories_segments":[],"categories_sizes":[],"default_left":[0,0,0,0,0,0,0,0,0,0,0,0,0,0,0,0,0],"id":29,"left_children":[1,3,5,7,9,11,-1,-1,13,-1,15,-1,-1,-1,-1,-1,-1],"loss_changes":[8.379839E8,1.8921194E8,6.270451E7,1.304784E7,3.7554644E7,3.37416E6,0E0,0E0,3.32032E6,0E0,2.562198E7,0E0,0E0,0E0,0E0,0E0,0E0],"parents":[2147483647,0,0,1,1,2,2,3,3,4,4,5,5,8,8,10,10],"right_children":[2,4,6,8,10,12,-1,-1,14,-1,16,-1,-1,-1,-1,-1,-1],"split_conditions":[1.931328E4,1.0315958E4,3.0807732E4,4.887861E3,1.2E-1,2.4583852E4,2.0618016E2,-1.4505249E2,8.429551E3,-1.5324477E2,1.330486E4,7.92264E1,1.214204E2,-9.7186104E1,-6.5688194E1,-4.1725674E1,1.7830648E1],"split_indices":[6,6,6,6,2,6,0,0,6,0,6,0,0,0,0,0,0],"split_type":[0,0,0,0,0,0,0,0,0,0,0,0,0,0,0,0,0],"sum_hessian":[2.69E2,2E2,6.9E1,1.02E2,9.8E1,4.1E1,2.8E1,1.6E1,8.6E1,3E0,9.5E1,1.9E1,2.2E1,6.5E1,2.1E1,2.3E1,7.2E1],"tree_param":{"num_deleted":"0","num_feature":"18","num_nodes":"17","size_leaf_vector":"1"}},{"base_weights":[7.833306E0,-1.2990886E3,2.0914377E3,-1.838993E3,-4.899649E2,7.128617E2,2.8513337E3,-1.4426537E3,-2.17072E3,-1.4749808E2,-3.33449E2,8.3070935E2,-2.6297882E1,1.9257452E2,2.1802754E3,-7.499946E1,-3.1904148E1,-1.370963E2,-9.779162E1,2.410437E1,-2.1151955E1,1.5410593E1,4.7309902E1,1.23891014E2,8.571012E1],"categories":[],"categories_nodes":[],"categories_segments":[],"categories_sizes":[],"default_left":[0,0,0,0,0,0,0,0,0,0,0,0,0,0,0,0,0,0,0,0,0,0,0,0,0],"id":30,"left_children":[1,3,5,7,9,11,13,15,17,-1,19,21,-1,-1,23,-1,-1,-1,-1,-1,-1,-1,-1,-1,-1],"loss_changes":[7.488487E8,7.292624E7,1.0900989E8,1.01472E7,2.5582986E7,6.130634E6,3.7241216E7,1.303064E6,1.142272E6,0E0,5.0261585E6,1.880578E6,0E0,0E0,1.715264E6,0E0,0E0,0E0,0E0,0E0,0E0,0E0,0E0,0E0,0E0],"parents":[2147483647,0,0,1,1,2,2,3,3,4,4,5,5,6,6,7,7,8,8,10,10,11,11,14,14],"right_children":[2,4,6,8,10,12,14,16,18,-1,20,22,-1,-1,24,-1,-1,-1,-1,-1,-1,-1,-1,-1,-1],"split_conditions":[1.6976161E2,1.1096156E2,1.9705501E2,1.4418717E-1,1.2E-1,1.6922511E-2,1.012524E-1,4.32328E1,4.120667E1,-1.4749808E2,1.1504319E2,5E0,-2.6297882E1,1.9257452E2,1.1186255E-1,-7.499946E1,-3.1904148E1,-1.370963E2,-9.779162E1,2.410437E1,-2.1151955E1,1.5410593E1,4.7309902E1,1.23891014E2,8.571012E1],"split_indices":[3,3,3,8,2,11,7,17,3,0,4,15,0,0,7,0,0,0,0,0,0,0,0,0,0],"split_type":[0,0,0,0,0,0,0,0,0,0,0,0,0,0,0,0,0,0,0,0,0,0,0,0,0],"sum_hessian":[2.73E2,1.68E2,1.05E2,1E2,6.8E1,3.8E1,6.7E1,4.8E1,5.2E1,3E0,6.5E1,3.5E1,3E0,2.5E1,4.2E1,4.4E1,4E0,1.1E1,4.1E1,6E0,5.9E1,7E0,2.8E1,2.3E1,1.9E1],"tree_param":{"num_deleted":"0","num_feature":"18","num_nodes":"25","size_leaf_vector":"1"}},{"base_weights":[-4.642055E0,-1.304935E3,1.9458395E3,-1.8137251E3,-4.7661694E2,9.970806E2,3.1559907E3,-1.1028765E2,-1.5039116E3,-1.419669E2,-3.1115695E2,6.4362244E2,8.535784E1,1.2061021E2,2.0197437E2,-2.9519306E1,-7.71153E1,9.227383E1,-2.4907946E1,3.7273144E1,-2.6783112E1],"categories":[],"categories_nodes":[],"categories_segments":[],"categories_sizes":[],"default_left":[0,0,0,0,0,0,0,0,0,0,0,0,0,0,0,0,0,0,0,0,0],"id":31,"left_children":[1,3,5,7,9,11,13,-1,15,-1,17,19,-1,-1,-1,-1,-1,-1,-1,-1,-1],"loss_changes":[6.847762E8,6.740864E7,1.208521E8,8.827904E6,2.3745162E7,1.4461896E7,2.1140512E7,0E0,1.158616E6,0E0,2.5116886E7,5.563588E6,0E0,0E0,0E0,0E0,0E0,0E0,0E0,0E0,0E0],"parents":[2147483647,0,0,1,1,2,2,3,3,4,4,5,5,6,6,8,8,10,10,11,11],"right_children":[2,4,6,8,10,12,14,-1,16,-1,18,20,-1,-1,-1,-1,-1,-1,-1,-1,-1],"split_conditions":[1.5557803E2,9.601262E3,2.4771389E4,6.6651406E3,1.2E-1,2.0047475E4,3.1618768E4,-1.1028765E2,7.399727E2,-1.419669E2,2.4E-1,3.629491E-2,8.535784E1,1.2061021E2,2.0197437E2,-2.9519306E1,-7.71153E1,9.227383E1,-2.4907946E1,3.7273144E1,-2.6783112E1],"split_indices":[3,6,6,6,2,6,6,0,9,0,2,11,0,0,0,0,0,0,0,0,0],"split_type":[0,0,0,0,0,0,0,0,0,0,0,0,0,0,0,0,0,0,0,0,0],"sum_hessian":[2.68E2,1.61E2,1.07E2,9.9E1,6.2E1,6.1E1,4.6E1,4.1E1,5.8E1,3E0,5.9E1,4.2E1,1.9E1,2.7E1,1.9E1,3E0,5.5E1,4E0,5.5E1,3.9E1,3E0],"tree_param":{"num_deleted":"0","num_feature":"18","num_nodes":"21","size_leaf_vector":"1"}},{"base_weights":[2.8749401E1,-8.2443243E2,2.8116106E3,-1.4491176E3,4.5635754E2,1.9171555E2,2.0917024E3,-1.8861625E3,-9.266341E2,-1.2811722E2,7.1326434E2,1.21704285E2,7.627854E1,-1.2582958E2,-8.5229935E1,-3.9538662E1,-1.3664314E2,-1.9933905E1,1.806832E1,2.2102066E1,5.218736E1],"categories":[],"categories_nodes":[],"categories_segments":[],"categories_sizes":[],"default_left":[0,0,0,0,0,0,0,0,0,0,0,0,0,0,0,0,0,0,0,0,0],"id":32,"left_children":[1,3,5,7,9,-1,11,13,15,17,19,-1,-1,-1,-1,-1,-1,-1,-1,-1,-1],"loss_changes":[6.172584E8,1.5987941E8,3.689043E7,2.8850688E7,1.0001705E7,0E0,3.651936E6,3.951152E6,1.32985E7,2.9252098E6,3.66166E6,0E0,0E0,0E0,0E0,0E0,0E0,0E0,0E0,0E0,0E0],"parents":[2147483647,0,0,1,1,2,2,3,3,4,4,6,6,7,7,8,8,9,9,10,10],"right_children":[2,4,6,8,10,-1,12,14,16,18,20,-1,-1,-1,-1,-1,-1,-1,-1,-1,-1],"split_conditions":[3E0,1.382195E4,1.0266259E-1,8.428113E3,1.5465543E4,1.9171555E2,1.1186255E-1,4.826143E3,1.3780417E4,7.305227E4,2.2495236E4,1.21704285E2,7.627854E1,-1.2582958E2,-8.5229935E1,-3.9538662E1,-1.3664314E2,-1.9933905E1,1.806832E1,2.2102066E1,5.218736E1],"split_indices":[0,6,7,6,6,0,7,5,6,13,5,0,0,0,0,0,0,0,0,0,0],"split_type":[0,0,0,0,0,0,0,0,0,0,0,0,0,0,0,0,0,0,0,0,0],"sum_hessian":[2.58E2,1.98E2,6E1,1.33E2,6.5E1,2.3E1,3.7E1,7.1E1,6.2E1,2E1,4.5E1,2.1E1,1.6E1,1.3E1,5.8E1,5.9E1,3E0,1.3E1,7E0,2.6E1,1.9E1],"tree_param":{"num_deleted":"0","num_feature":"18","num_nodes":"21","size_leaf_vector":"1"}},{"base_weights":[-8.98324E1,-8.5821814E2,2.634793E3,-1.4308231E3,3.4337274E2,3.311003E3,1.9608396E3,-2.380796E3,-1.2283857E3,2.2463205E2,7.466621E1,1.7251001E2,8.240217E1,7.621982E1,1.19095695E2,-1.448756E2,-7.768432E1,-8.048171E1,-3.5028404E1,-2.6895033E1,1.5879964E1],"categories":[],"categories_nodes":[],"categories_segments":[],"categories_sizes":[],"default_left":[0,0,0,0,0,0,0,0,0,0,0,0,0,0,0,0,0,0,0,0,0],"id":33,"left_children":[1,3,5,7,9,11,13,15,17,19,-1,-1,-1,-1,-1,-1,-1,-1,-1,-1,-1],"loss_changes":[5.424004E8,1.3947486E8,1.9483968E7,2.34216E7,8.676417E6,5.6336E5,2.065648E6,5.327496E6,2.2013504E7,4.4951375E6,0E0,0E0,0E0,0E0,0E0,0E0,0E0,0E0,0E0,0E0,0E0],"parents":[2147483647,0,0,1,1,2,2,3,3,4,4,5,5,6,6,7,7,8,8,9,9],"right_children":[2,4,6,8,10,12,14,16,18,20,-1,-1,-1,-1,-1,-1,-1,-1,-1,-1,-1],"split_conditions":[3E0,1.382195E4,1.3551831E-1,1.2E-1,1.9294566E4,3.550161E4,2.5157867E4,2E0,6.7484726E1,3.6E-1,7.466621E1,1.7251001E2,8.240217E1,7.621982E1,1.19095695E2,-1.448756E2,-7.768432E1,-8.048171E1,-3.5028404E1,-2.6895033E1,1.5879964E1],"split_indices":[0,6,8,2,6,9,6,0,3,2,0,0,0,0,0,0,0,0,0,0,0],"split_type":[0,0,0,0,0,0,0,0,0,0,0,0,0,0,0,0,0,0,0,0,0],"sum_hessian":[2.57E2,2.01E2,5.6E1,1.36E2,6.5E1,2.6E1,3E1,2.2E1,1.14E2,6E1,5E0,2.3E1,3E0,1.7E1,1.3E1,1.2E1,1E1,6.5E1,4.9E1,6E0,5.4E1],"tree_param":{"num_deleted":"0","num_feature":"18","num_nodes":"21","size_leaf_vector":"1"}},{"base_weights":[-1.2671755E1,-1.1644684E3,1.7151396E3,-1.593394E3,-4.4695148E2,7.5483026E2,2.6614688E3,-1.099828E2,-1.3967164E3,-2.2588156E1,-7.7366925E2,5.466155E2,7.2768684E1,3.2956309E3,9.526214E1,-5.456213E1,-7.760323E1,-6.597206E0,2.2744918E0,-4.1725693E0,-5.4326893E1,-2.8155354E1,3.207757E1,1.365954E2,2.0185655E2],"categories":[],"categories_nodes":[],"categories_segments":[],"categories_sizes":[],"default_left":[0,0,0,0,0,0,0,0,0,0,0,0,0,0,0,0,0,0,0,0,0,0,0,0,0],"id":34,"left_children":[1,3,5,7,9,11,13,-1,15,17,19,21,-1,23,-1,-1,-1,-1,-1,-1,-1,-1,-1,-1,-1],"loss_changes":[5.373307E8,4.9144976E7,9.613776E7,8.9704E6,8.578561E6,7.226758E6,1.9617216E7,0E0,2.054976E6,2.1446331E5,7.46737E6,4.996784E6,0E0,6.74304E5,0E0,0E0,0E0,0E0,0E0,0E0,0E0,0E0,0E0,0E0,0E0],"parents":[2147483647,0,0,1,1,2,2,3,3,4,4,5,5,6,6,8,8,9,9,10,10,11,11,13,13],"right_children":[2,4,6,8,10,12,14,-1,16,18,20,22,-1,24,-1,-1,-1,-1,-1,-1,-1,-1,-1,-1,-1],"split_conditions":[1.5557803E2,1.0193139E2,2.4570055E2,4.315831E1,1.0018904E-1,1.9705501E2,1.0266259E-1,-1.099828E2,1.2111442E-1,1.1046144E5,7.9136126E-2,4.184001E-1,7.2768684E1,2.8524753E2,9.526214E1,-5.456213E1,-7.760323E1,-6.597206E0,2.2744918E0,-4.1725693E0,-5.4326893E1,-2.8155354E1,3.207757E1,1.365954E2,2.0185655E2],"split_indices":[3,3,3,3,7,3,7,0,8,9,8,12,0,3,0,0,0,0,0,0,0,0,0,0,0],"split_type":[0,0,0,0,0,0,0,0,0,0,0,0,0,0,0,0,0,0,0,0,0,0,0,0,0],"sum_hessian":[2.68E2,1.61E2,1.07E2,1E2,6.1E1,5.4E1,5.3E1,2.2E1,7.8E1,2.7E1,3.4E1,4.3E1,1.1E1,2.7E1,2.6E1,2.9E1,4.9E1,1E1,1.7E1,1.1E1,2.3E1,3E0,4E1,1.8E1,9E0],"tree_param":{"num_deleted":"0","num_feature":"18","num_nodes":"25","size_leaf_vector":"1"}},{"base_weights":[-6.8592155E1,-7.214409E2,2.2829087E3,-1.2664232E3,3.1579144E2,1.5356693E2,1.664215E3,-1.5559753E3,-7.0384796E2,4.183043E2,-5.40007E1,5.356374E1,9.2096344E1,-1.3654503E2,-6.9045265E1,-5.3439434E1,-1.0924762E1,4.7445264E0,3.7442818E1],"categories":[],"categories_nodes":[],"categories_segments":[],"categories_sizes":[],"default_left":[0,0,0,0,0,0,0,0,0,0,0,0,0,0,0,0,0,0,0],"id":35,"left_children":[1,3,5,7,9,-1,11,13,15,17,-1,-1,-1,-1,-1,-1,-1,-1,-1],"loss_changes":[3.8851082E8,1.1232411E8,2.171696E7,2.0080944E7,1.032478E7,0E0,1.503792E6,1.3712496E7,7.914094E6,6.877686E6,0E0,0E0,0E0,0E0,0E0,0E0,0E0,0E0,0E0],"parents":[2147483647,0,0,1,1,2,2,3,3,4,4,6,6,7,7,8,8,9,9],"right_children":[2,4,6,8,10,-1,12,14,16,18,-1,-1,-1,-1,-1,-1,-1,-1,-1],"split_conditions":[3E0,1.382195E4,1.0266259E-1,2E0,1.1186255E-1,1.5356693E2,2.4583852E4,1.2E-1,4.8E-1,1.7569615E4,-5.40007E1,5.356374E1,9.2096344E1,-1.3654503E2,-6.9045265E1,-5.3439434E1,-1.0924762E1,4.7445264E0,3.7442818E1],"split_indices":[0,6,7,0,7,0,6,2,2,6,0,0,0,0,0,0,0,0,0],"split_type":[0,0,0,0,0,0,0,0,0,0,0,0,0,0,0,0,0,0,0],"sum_hessian":[2.51E2,1.97E2,5.4E1,1.29E2,6.8E1,2.2E1,3.2E1,8.4E1,4.5E1,6.4E1,4E0,9E0,2.3E1,9E0,7.5E1,2.5E1,2E1,3.3E1,3.1E1],"tree_param":{"num_deleted":"0","num_feature":"18","num_nodes":"19","size_leaf_vector":"1"}},{"base_weights":[-1.385312E0,-6.727792E2,2.2790608E3,-1.5629434E3,-1.8071376E2,1.4930296E2,1.6529663E3,-1.1261487E2,-1.2619606E3,-6.474129E1,7.5660515E1,9.213623E1,5.8366024E1,-6.9671684E1,-4.7175407E1,1.5153211E1,-1.939015E1],"categories":[],"categories_nodes":[],"categories_segments":[],"categories_sizes":[],"default_left":[0,0,0,0,0,0,0,0,0,0,0,0,0,0,0,0,0],"id":36,"left_children":[1,3,5,7,9,-1,11,-1,13,-1,15,-1,-1,-1,-1,-1,-1],"loss_changes":[3.9042685E8,8.600714E7,2.0737248E7,1.1681184E7,3.665868E7,0E0,8.89768E5,0E0,8.2032E5,0E0,1.1183819E7,0E0,0E0,0E0,0E0,0E0,0E0],"parents":[2147483647,0,0,1,1,2,2,3,3,4,4,6,6,8,8,10,10],"right_children":[2,4,6,8,10,-1,12,-1,14,-1,16,-1,-1,-1,-1,-1,-1],"split_conditions":[3E0,1E0,1.0266259E-1,2E-1,2E-1,1.4930296E2,1.12268336E-1,-1.1261487E2,6.8E-1,-6.474129E1,9.864761E4,9.213623E1,5.8366024E1,-6.9671684E1,-4.7175407E1,1.5153211E1,-1.939015E1],"split_indices":[0,0,7,2,2,0,7,0,2,0,13,0,0,0,0,0,0],"split_type":[0,0,0,0,0,0,0,0,0,0,0,0,0,0,0,0,0],"sum_hessian":[2.53E2,1.96E2,5.7E1,6.9E1,1.27E2,2.5E1,3.2E1,1.9E1,5E1,2.3E1,1.04E2,2.1E1,1.1E1,3.3E1,1.7E1,7E1,3.4E1],"tree_param":{"num_deleted":"0","num_feature":"18","num_nodes":"17","size_leaf_vector":"1"}},{"base_weights":[4.183319E1,-6.156785E2,2.2922678E3,-1.1320599E3,3.1233734E2,2.8889905E3,1.4780375E3,-1.9064795E3,-9.2012256E2,4.0595453E2,-5.210136E1,1.5108655E2,7.70639E1,8.607588E1,5.8423946E1,-1.0764634E2,-5.8717983E1,-6.1607525E1,-1.9503578E1,9.818278E0,3.8348625E1],"categories":[],"categories_nodes":[],"categories_segments":[],"categories_sizes":[],"default_left":[0,0,0,0,0,0,0,0,0,0,0,0,0,0,0,0,0,0,0,0,0],"id":37,"left_children":[1,3,5,7,9,11,13,15,17,19,-1,-1,-1,-1,-1,-1,-1,-1,-1,-1,-1],"loss_changes":[3.8613014E8,9.715412E7,2.4395872E7,1.9582224E7,9.678754E6,1.245728E6,2.318E4,2.342952E6,1.671984E7,5.070208E6,0E0,0E0,0E0,0E0,0E0,0E0,0E0,0E0,0E0,0E0,0E0],"parents":[2147483647,0,0,1,1,2,2,3,3,4,4,5,5,6,6,7,7,8,8,9,9],"right_children":[2,4,6,8,10,12,14,16,18,20,-1,-1,-1,-1,-1,-1,-1,-1,-1,-1,-1],"split_conditions":[3E0,1.382195E4,1.04893096E-1,1.6E-1,1.1186255E-1,5.2417624E-3,1.12268336E-1,1.19859084E-1,8.918302E1,1.8513682E4,-5.210136E1,1.5108655E2,7.70639E1,8.607588E1,5.8423946E1,-1.0764634E2,-5.8717983E1,-6.1607525E1,-1.9503578E1,9.818278E0,3.8348625E1],"split_indices":[0,6,7,2,7,11,7,7,3,6,0,0,0,0,0,0,0,0,0,0,0],"split_type":[0,0,0,0,0,0,0,0,0,0,0,0,0,0,0,0,0,0,0,0,0],"sum_hessian":[2.59E2,2.01E2,5.8E1,1.29E2,7.2E1,3.2E1,2.6E1,2.6E1,1.03E2,6.8E1,4E0,2.8E1,4E0,1.2E1,1.4E1,1.8E1,8E0,6.4E1,3.9E1,4.4E1,2.4E1],"tree_param":{"num_deleted":"0","num_feature":"18","num_nodes":"21","size_leaf_vector":"1"}},{"base_weights":[4.3687992E1,-5.8645996E2,2.0463435E3,-1.0872177E3,3.3052588E2,1.6033843E3,1.5035619E2,-1.4182881E3,-6.331862E2,4.3772852E2,-4.9655483E1,1.339982E2,1.4446028E3,-9.1618484E1,-6.2343136E1,-9.505767E1,-2.416741E1,1.1926451E1,4.21537E1,5.8015816E1,8.5035324E1],"categories":[],"categories_nodes":[],"categories_segments":[],"categories_sizes":[],"default_left":[0,0,0,0,0,0,0,0,0,0,0,0,0,0,0,0,0,0,0,0,0],"id":38,"left_children":[1,3,5,7,9,11,-1,13,15,17,-1,-1,19,-1,-1,-1,-1,-1,-1,-1,-1],"loss_changes":[3.5328966E8,9.816642E7,2.3692256E7,1.9845408E7,1.1218845E7,4.333272E6,0E0,3.32272E6,1.0480222E7,5.531662E6,0E0,0E0,1.229856E6,0E0,0E0,0E0,0E0,0E0,0E0,0E0,0E0],"parents":[2147483647,0,0,1,1,2,2,3,3,4,4,5,5,7,7,8,8,9,9,12,12],"right_children":[2,4,6,8,10,12,-1,14,16,18,-1,-1,20,-1,-1,-1,-1,-1,-1,-1,-1],"split_conditions":[3E0,1.27236046E2,3.1618768E4,8.429551E3,1.1186255E-1,2.4E-1,1.5035619E2,5.186795E3,1.2E-1,1.8626516E4,-4.9655483E1,1.339982E2,5.2E-1,-9.1618484E1,-6.2343136E1,-9.505767E1,-2.416741E1,1.1926451E1,4.21537E1,5.8015816E1,8.5035324E1],"split_indices":[0,3,6,6,7,2,0,6,2,6,0,0,2,0,0,0,0,0,0,0,0],"split_type":[0,0,0,0,0,0,0,0,0,0,0,0,0,0,0,0,0,0,0,0,0],"sum_hessian":[2.78E2,2.12E2,6.6E1,1.37E2,7.5E1,4.7E1,1.9E1,7.8E1,5.9E1,7E1,5E0,4E0,4.3E1,2E1,5.8E1,5E0,5.4E1,4.8E1,2.2E1,2.3E1,2E1],"tree_param":{"num_deleted":"0","num_feature":"18","num_nodes":"21","size_leaf_vector":"1"}},{"base_weights":[-6.863075E1,-6.6017755E2,1.7980712E3,-1.0464287E3,1.5100153E2,1.3145491E3,1.4497557E2,-1.7808243E3,-8.776773E2,2.0839606E2,-4.0251812E1,5.604419E2,1.4112344E3,-5.7076637E1,-1.1415609E2,-5.999256E1,-2.521988E1,1.25399E0,2.4668112E1,3.7783123E1,1.12542925E1,4.0662987E1,7.4525276E1],"categories":[],"categories_nodes":[],"categories_segments":[],"categories_sizes":[],"default_left":[0,0,0,0,0,0,0,0,0,0,0,0,0,0,0,0,0,0,0,0,0,0,0],"id":39,"left_children":[1,3,5,7,9,11,-1,13,15,17,-1,19,21,-1,-1,-1,-1,-1,-1,-1,-1,-1,-1],"loss_changes":[2.9822787E8,6.438848E7,3.0805152E7,1.5663056E7,3.8440862E6,2.635704E6,0E0,5.421264E6,1.322464E7,3.330866E6,0E0,2.8809175E5,7.31088E5,0E0,0E0,0E0,0E0,0E0,0E0,0E0,0E0,0E0,0E0],"parents":[2147483647,0,0,1,1,2,2,3,3,4,4,5,5,7,7,8,8,9,9,11,11,12,12],"right_children":[2,4,6,8,10,12,-1,14,16,18,-1,20,22,-1,-1,-1,-1,-1,-1,-1,-1,-1,-1],"split_conditions":[1.931328E4,1.382195E4,3.1618768E4,1.2E-1,1.9078607E2,2.272107E4,1.4497557E2,1.1E1,7.686609E3,2.1320035E4,-4.0251812E1,1.8823058E2,9E0,-5.7076637E1,-1.1415609E2,-5.999256E1,-2.521988E1,1.25399E0,2.4668112E1,3.7783123E1,1.12542925E1,4.0662987E1,7.4525276E1],"split_indices":[6,6,6,2,4,6,0,15,5,5,0,4,15,0,0,0,0,0,0,0,0,0,0],"split_type":[0,0,0,0,0,0,0,0,0,0,0,0,0,0,0,0,0,0,0,0,0,0,0],"sum_hessian":[2.68E2,2.04E2,6.4E1,1.38E2,6.6E1,4.6E1,1.8E1,2.4E1,1.14E2,6.3E1,3E0,6E0,4E1,1.2E1,1.2E1,6E1,5.4E1,3.9E1,2.4E1,3E0,3E0,6E0,3.4E1],"tree_param":{"num_deleted":"0","num_feature":"18","num_nodes":"23","size_leaf_vector":"1"}},{"base_weights":[-2.0009092E1,-8.314727E2,1.2050295E3,-1.2323744E3,-3.3680258E2,6.7115643E2,2.1824885E3,-8.381647E1,-1.0942656E3,-1.0661218E2,-2.2939308E2,4.0329874E2,1.1371643E3,1.6792273E3,1.3690306E2,-4.6299816E1,-5.986576E1,5.7244473E1,-1.8806128E1,-2.4360846E1,2.61892E1,6.3431843E1,4.065409E1,8.860608E1,4.090739E1],"categories":[],"categories_nodes":[],"categories_segments":[],"categories_sizes":[],"default_left":[0,0,0,0,0,0,0,0,0,0,0,0,0,0,0,0,0,0,0,0,0,0,0,0,0],"id":40,"left_children":[1,3,5,7,9,11,13,-1,15,-1,17,19,21,23,-1,-1,-1,-1,-1,-1,-1,-1,-1,-1,-1],"loss_changes":[2.644316E8,3.131504E7,5.384987E7,3.561008E6,1.3588506E7,8.278896E6,5.746864E6,0E0,1.04888E5,0E0,1.4545881E7,5.1907235E6,3.3484E4,3.09644E5,0E0,0E0,0E0,0E0,0E0,0E0,0E0,0E0,0E0,0E0,0E0],"parents":[2147483647,0,0,1,1,2,2,3,3,4,4,5,5,6,6,8,8,10,10,11,11,12,12,13,13],"right_children":[2,4,6,8,10,12,14,-1,16,-1,18,20,22,24,-1,-1,-1,-1,-1,-1,-1,-1,-1,-1,-1],"split_conditions":[1.5465543E4,8.911744E3,2.6495914E4,5.186795E3,1.2E-1,2.272107E4,3.20002E4,-8.381647E1,1.4418717E-1,-1.0661218E2,2.4E-1,5.284686E-1,2.2132312E-1,4.8310184E4,1.3690306E2,-4.6299816E1,-5.986576E1,5.7244473E1,-1.8806128E1,-2.4360846E1,2.61892E1,6.3431843E1,4.065409E1,8.860608E1,4.090739E1],"split_indices":[6,6,6,6,2,6,6,0,8,0,2,12,8,13,0,0,0,0,0,0,0,0,0,0,0],"split_type":[0,0,0,0,0,0,0,0,0,0,0,0,0,0,0,0,0,0,0,0,0,0,0,0,0],"sum_hessian":[2.64E2,1.59E2,1.05E2,8.7E1,7.2E1,6.9E1,3.6E1,1.8E1,6.9E1,3E0,6.9E1,4.5E1,2.4E1,2.1E1,1.5E1,3E1,3.9E1,6E0,6.3E1,5E0,4E1,1.5E1,9E0,1.8E1,3E0],"tree_param":{"num_deleted":"0","num_feature":"18","num_nodes":"25","size_leaf_vector":"1"}},{"base_weights":[2.0856028E1,-6.5571844E2,1.4878759E3,-1.1246365E3,-9.4154755E1,1.068287E3,2.4748489E3,-7.968807E1,-9.839139E2,-1.0261422E2,4.927412E0,1.1570726E3,-2.3197762E1,2.6560437E3,4.524194E1,-3.9560593E1,-5.503825E1,8.997639E1,-6.9352493E0,3.2341038E1,6.702084E1,9.5967766E1,1.5756323E2],"categories":[],"categories_nodes":[],"categories_segments":[],"categories_sizes":[],"default_left":[0,0,0,0,0,0,0,0,0,0,0,0,0,0,0,0,0,0,0,0,0,0,0],"id":41,"left_children":[1,3,5,7,9,11,13,-1,15,-1,17,19,-1,21,-1,-1,-1,-1,-1,-1,-1,-1,-1],"loss_changes":[2.6102333E8,4.729291E7,3.1728E7,4.901232E6,1.6113621E7,8.69936E6,4.423824E6,0E0,8.85232E5,0E0,2.087079E7,4.46524E6,0E0,1.612384E6,0E0,0E0,0E0,0E0,0E0,0E0,0E0,0E0,0E0],"parents":[2147483647,0,0,1,1,2,2,3,3,4,4,5,5,6,6,8,8,10,10,11,11,13,13],"right_children":[2,4,6,8,10,12,14,-1,16,-1,18,20,-1,22,-1,-1,-1,-1,-1,-1,-1,-1,-1],"split_conditions":[1.8453233E2,1.3788915E4,2.7863074E2,4.860427E3,1.2E-1,1.6922511E-2,3.0577814E2,-7.968807E1,1.3168229E-1,-1.0261422E2,2.8E-1,2.3023588E4,-2.3197762E1,2.8524753E2,4.524194E1,-3.9560593E1,-5.503825E1,8.997639E1,-6.9352493E0,3.2341038E1,6.702084E1,9.5967766E1,1.5756323E2],"split_indices":[3,5,3,5,2,11,4,0,8,0,2,5,0,3,0,0,0,0,0,0,0,0,0],"split_type":[0,0,0,0,0,0,0,0,0,0,0,0,0,0,0,0,0,0,0,0,0,0,0],"sum_hessian":[2.61E2,1.79E2,8.2E1,9.7E1,8.2E1,5.9E1,2.3E1,2E1,7.7E1,3E0,7.9E1,5.6E1,3E0,2E1,3E0,3.2E1,4.5E1,5E0,7.4E1,1.6E1,4E1,1E1,1E1],"tree_param":{"num_deleted":"0","num_feature":"18","num_nodes":"23","size_leaf_vector":"1"}},{"base_weights":[6.6052365E0,-5.392723E2,1.628321E3,-9.9065607E2,1.3614186E2,1.148014E3,2.4810583E3,-1.3293695E3,-7.8517676E2,-9.876618E1,2.4001462E2,9.285504E2,7.5073395E1,8.938606E1,1.4242989E2,-7.9696915E1,-5.7923317E1,-4.517567E1,-3.0936493E1,8.193552E1,6.2458715E0,1.695812E1,5.1442287E1],"categories":[],"categories_nodes":[],"categories_segments":[],"categories_sizes":[],"default_left":[0,0,0,0,0,0,0,0,0,0,0,0,0,0,0,0,0,0,0,0,0,0,0],"id":42,"left_children":[1,3,5,7,9,11,13,15,17,-1,19,21,-1,-1,-1,-1,-1,-1,-1,-1,-1,-1,-1],"loss_changes":[2.425537E8,6.263351E7,2.541208E7,7.516624E6,1.8677804E7,2.173796E6,1.022928E6,1.87904E5,9.9686E5,0E0,1.2673997E7,1.483416E6,0E0,0E0,0E0,0E0,0E0,0E0,0E0,0E0,0E0,0E0,0E0],"parents":[2147483647,0,0,1,1,2,2,3,3,4,4,5,5,6,6,7,7,8,8,10,10,11,11],"right_children":[2,4,6,8,10,12,14,16,18,-1,20,22,-1,-1,-1,-1,-1,-1,-1,-1,-1,-1,-1],"split_conditions":[1.931328E4,1.295955E4,3.1618768E4,6.6651406E3,1.2E-1,2E1,1.1E1,3.8657295E1,8.911744E3,-9.876618E1,2.8E-1,2.272107E4,7.5073395E1,8.938606E1,1.4242989E2,-7.9696915E1,-5.7923317E1,-4.517567E1,-3.0936493E1,8.193552E1,6.2458715E0,1.695812E1,5.1442287E1],"split_indices":[6,6,6,6,2,15,15,3,6,0,2,6,0,0,0,0,0,0,0,0,0,0,0],"split_type":[0,0,0,0,0,0,0,0,0,0,0,0,0,0,0,0,0,0,0,0,0,0,0],"sum_hessian":[2.72E2,2.04E2,6.8E1,1.22E2,8.2E1,4.5E1,2.3E1,4.4E1,7.8E1,3E0,7.9E1,3E1,1.5E1,1E1,1.3E1,1.4E1,3E1,4.3E1,3.5E1,5E0,7.4E1,5E0,2.5E1],"tree_param":{"num_deleted":"0","num_feature":"18","num_nodes":"23","size_leaf_vector":"1"}},{"base_weights":[-1.1578354E1,-7.2359235E2,1.0635356E3,-1.1049165E3,-4.010466E2,4.962684E2,1.7710438E3,-4.0021206E1,-1.4414849E3,-6.656319E2,-8.6744865E1,3.28712E2,9.9938776E2,1.3604941E3,1.1836043E2,-6.444268E1,-1.09383316E2,-7.9376564E0,-3.762685E1,-2.644875E1,2.017001E0,-2.6906141E1,2.2526096E1,9.00168E0,6.032361E1,7.516507E1,4.3805E1],"categories":[],"categories_nodes":[],"categories_segments":[],"categories_sizes":[],"default_left":[0,0,0,0,0,0,0,0,0,0,0,0,0,0,0,0,0,0,0,0,0,0,0,0,0,0,0],"id":43,"left_children":[1,3,5,7,9,11,13,-1,15,17,19,21,23,25,-1,-1,-1,-1,-1,-1,-1,-1,-1,-1,-1,-1,-1],"loss_changes":[1.9597106E8,1.849788E7,4.005817E7,6.019752E6,7.010751E6,4.560807E6,7.79304E6,0E0,8.24568E5,1.906758E6,2.2694185E6,4.9939365E6,2.158113E6,6.88796E5,0E0,0E0,0E0,0E0,0E0,0E0,0E0,0E0,0E0,0E0,0E0,0E0,0E0],"parents":[2147483647,0,0,1,1,2,2,3,3,4,4,5,5,6,6,8,8,9,9,10,10,11,11,12,12,13,13],"right_children":[2,4,6,8,10,12,14,-1,16,18,20,22,24,26,-1,-1,-1,-1,-1,-1,-1,-1,-1,-1,-1,-1,-1],"split_conditions":[1.8522805E4,1E0,2.4651717E4,8.0296665E-2,1.295955E4,8.569886E-1,3.20002E4,-4.0021206E1,5.728882E1,7.9136126E-2,3E1,5.729889E-2,1.393547E4,1.0349043E-3,1.1836043E2,-6.444268E1,-1.09383316E2,-7.9376564E0,-3.762685E1,-2.644875E1,2.017001E0,-2.6906141E1,2.2526096E1,9.00168E0,6.032361E1,7.516507E1,4.3805E1],"split_indices":[5,0,6,7,6,12,6,0,4,8,15,8,13,11,0,0,0,0,0,0,0,0,0,0,0,0,0],"split_type":[0,0,0,0,0,0,0,0,0,0,0,0,0,0,0,0,0,0,0,0,0,0,0,0,0,0,0],"sum_hessian":[2.54E2,1.53E2,1.01E2,6.9E1,8.4E1,5.7E1,4.4E1,3.8E1,3.1E1,4.5E1,3.9E1,4.4E1,1.3E1,2.8E1,1.6E1,2.8E1,3E0,7E0,3.8E1,8E0,3.1E1,5E0,3.9E1,3E0,1E1,2E1,8E0],"tree_param":{"num_deleted":"0","num_feature":"18","num_nodes":"27","size_leaf_vector":"1"}},{"base_weights":[3.1891209E1,-4.5224466E2,1.5705352E3,-8.0825696E2,3.1878397E2,2.168074E3,1.0859387E3,-1.0682787E3,-5.106851E2,4.0054883E2,-5.4478313E1,7.841611E1,2.623281E3,6.7162224E1,4.130252E1,-8.062525E1,-4.3745567E1,-3.4974575E1,-8.212955E0,3.4697784E1,5.6308703E0,5.976196E1,1.44034E2],"categories":[],"categories_nodes":[],"categories_segments":[],"categories_sizes":[],"default_left":[0,0,0,0,0,0,0,0,0,0,0,0,0,0,0,0,0,0,0,0,0,0,0],"id":44,"left_children":[1,3,5,7,9,11,13,15,17,19,-1,-1,21,-1,-1,-1,-1,-1,-1,-1,-1,-1,-1],"loss_changes":[2.0854102E8,5.872529E7,1.7046128E7,1.0751072E7,8.2667995E6,3.802768E6,1.498156E6,6.692096E6,4.463538E6,5.413037E6,0E0,0E0,2.070136E6,0E0,0E0,0E0,0E0,0E0,0E0,0E0,0E0,0E0,0E0],"parents":[2147483647,0,0,1,1,2,2,3,3,4,4,5,5,6,6,7,7,8,8,9,9,12,12],"right_children":[2,4,6,8,10,12,14,16,18,20,-1,-1,22,-1,-1,-1,-1,-1,-1,-1,-1,-1,-1],"split_conditions":[3E0,1.4161507E4,1.0266259E-1,1E0,1.9229984E2,1.9E1,1.1115935E-1,3.37557E5,3.1E1,9.794616E-2,-5.4478313E1,7.841611E1,3.0704456E2,6.7162224E1,4.130252E1,-8.062525E1,-4.3745567E1,-3.4974575E1,-8.212955E0,3.4697784E1,5.6308703E0,5.976196E1,1.44034E2],"split_indices":[0,6,7,0,4,15,7,16,15,8,0,0,9,0,0,0,0,0,0,0,0,0,0],"split_type":[0,0,0,0,0,0,0,0,0,0,0,0,0,0,0,0,0,0,0,0,0,0,0],"sum_hessian":[2.78E2,2.12E2,6.6E1,1.45E2,6.7E1,2.8E1,3.8E1,7.6E1,6.9E1,6.4E1,3E0,1.4E1,1.4E1,1.7E1,2.1E1,1.8E1,5.8E1,4.4E1,2.5E1,3.1E1,3.3E1,3E0,1.1E1],"tree_param":{"num_deleted":"0","num_feature":"18","num_nodes":"23","size_leaf_vector":"1"}},{"base_weights":[5.506799E1,-4.2723868E2,1.5224579E3,-8.265365E2,1.1145324E2,2.0361185E3,1.0633516E3,-1.095782E3,-6.418629E2,-9.1151726E1,2.0013461E2,2.210682E3,4.7015377E1,3.225173E1,1.2098832E3,-2.767223E1,-5.666794E1,-1.0360312E1,-3.4241093E1,-1.6073444E1,1.4871398E1,9.1074E1,1.4293445E2,6.4340706E1,3.6306965E1],"categories":[],"categories_nodes":[],"categories_segments":[],"categories_sizes":[],"default_left":[0,0,0,0,0,0,0,0,0,0,0,0,0,0,0,0,0,0,0,0,0,0,0,0,0],"id":45,"left_children":[1,3,5,7,9,11,13,15,17,-1,19,21,-1,-1,23,-1,-1,-1,-1,-1,-1,-1,-1,-1,-1],"loss_changes":[1.9456912E8,4.4617588E7,1.3870656E7,5.213456E6,1.563291E7,3.850904E6,1.548668E6,3.30412E5,1.221096E6,0E0,4.459986E6,1.349832E6,0E0,0E0,7.0196E4,0E0,0E0,0E0,0E0,0E0,0E0,0E0,0E0,0E0,0E0],"parents":[2147483647,0,0,1,1,2,2,3,3,4,4,5,5,6,6,7,7,8,8,10,10,11,11,14,14],"right_children":[2,4,6,8,10,12,14,16,18,-1,20,22,-1,-1,24,-1,-1,-1,-1,-1,-1,-1,-1,-1,-1],"split_conditions":[3E0,1.295955E4,1.3551831E-1,6.8862686E3,1.2E-1,5.2417624E-3,2.4583852E4,1.4418717E-1,7.9136126E-2,-9.1151726E1,6.9715744E-1,2.8675766E2,4.7015377E1,3.225173E1,5.710559E-3,-2.767223E1,-5.666794E1,-1.0360312E1,-3.4241093E1,-1.6073444E1,1.4871398E1,9.1074E1,1.4293445E2,6.4340706E1,3.6306965E1],"split_indices":[0,6,8,6,2,11,6,8,8,0,12,3,0,0,11,0,0,0,0,0,0,0,0,0,0],"split_type":[0,0,0,0,0,0,0,0,0,0,0,0,0,0,0,0,0,0,0,0,0,0,0,0,0],"sum_hessian":[2.73E2,2.06E2,6.7E1,1.18E2,8.8E1,3E1,3.7E1,4.6E1,7.2E1,3E0,8.5E1,2.5E1,5E0,1.1E1,2.6E1,4E0,4.2E1,7E0,6.5E1,1.3E1,7.2E1,1.8E1,7E0,2.1E1,5E0],"tree_param":{"num_deleted":"0","num_feature":"18","num_nodes":"25","size_leaf_vector":"1"}},{"base_weights":[-3.1823875E1,-4.5498007E2,1.2641731E3,-8.3780884E2,3.7425632E1,9.7306476E2,9.588714E1,-9.709909E2,-5.29672E2,-8.773355E1,1.21320465E2,1.1220919E3,6.141876E2,-6.371955E1,-4.3189297E1,-2.9312468E0,-3.0187647E1,8.790926E1,9.3902063E-1,2.0679487E1,5.9056007E1,3.4823105E1,9.661178E0],"categories":[],"categories_nodes":[],"categories_segments":[],"categories_sizes":[],"default_left":[0,0,0,0,0,0,0,0,0,0,0,0,0,0,0,0,0,0,0,0,0,0,0],"id":46,"left_children":[1,3,5,7,9,11,-1,13,15,-1,17,19,21,-1,-1,-1,-1,-1,-1,-1,-1,-1,-1],"loss_changes":[1.448067E8,3.7544332E7,1.0500504E7,4.08184E6,1.3443308E7,1.824328E6,0E0,1.403488E6,1.220781E6,0E0,1.423356E7,8.49628E5,4.19492E5,0E0,0E0,0E0,0E0,0E0,0E0,0E0,0E0,0E0,0E0],"parents":[2147483647,0,0,1,1,2,2,3,3,4,4,5,5,7,7,8,8,10,10,11,11,12,12],"right_children":[2,4,6,8,10,12,-1,14,16,-1,18,20,22,-1,-1,-1,-1,-1,-1,-1,-1,-1,-1],"split_conditions":[1.9294566E4,1.2027863E2,3.1618768E4,8.428113E3,1.2E-1,4.8310184E4,9.588714E1,5.1437935E3,7.9136126E-2,-8.773355E1,2.8E-1,-8.8546294E-1,1.1641905E5,-6.371955E1,-4.3189297E1,-2.9312468E0,-3.0187647E1,8.790926E1,9.3902063E-1,2.0679487E1,5.9056007E1,3.4823105E1,9.661178E0],"split_indices":[6,3,6,6,2,13,0,6,8,0,2,10,9,0,0,0,0,0,0,0,0,0,0],"split_type":[0,0,0,0,0,0,0,0,0,0,0,0,0,0,0,0,0,0,0,0,0,0,0],"sum_hessian":[2.62E2,1.98E2,6.4E1,1.11E2,8.7E1,4.6E1,1.8E1,7.6E1,3.5E1,3E0,8.4E1,3.1E1,1.5E1,1.7E1,5.9E1,5E0,3E1,4E0,8E1,3E0,2.8E1,1.2E1,3E0],"tree_param":{"num_deleted":"0","num_feature":"18","num_nodes":"23","size_leaf_vector":"1"}},{"base_weights":[8.008991E0,-6.476918E2,8.719894E2,-7.8149854E2,-7.977182E1,5.6659314E2,1.8510214E3,-1.311534E3,-6.6845404E2,-1.7943247E1,3.0343266E1,2.786123E2,8.843481E2,7.289911E1,1.3266982E2,-8.9204216E1,-3.5391018E1,-4.1156013E1,-2.1567041E1,-5.682039E0,8.578896E0,-1.9439304E1,1.9563023E1,4.6378963E1,2.0242027E1],"categories":[],"categories_nodes":[],"categories_segments":[],"categories_sizes":[],"default_left":[0,0,0,0,0,0,0,0,0,0,0,0,0,0,0,0,0,0,0,0,0,0,0,0,0],"id":47,"left_children":[1,3,5,7,9,11,13,15,17,-1,19,21,23,-1,-1,-1,-1,-1,-1,-1,-1,-1,-1,-1,-1],"loss_changes":[1.4049342E8,1.0652368E7,3.0943208E7,5.953712E6,8.714281E5,7.348602E6,4.015104E6,4.157358E6,3.165472E6,0E0,4.4655025E5,3.5352698E6,4.32802E5,0E0,0E0,0E0,0E0,0E0,0E0,0E0,0E0,0E0,0E0,0E0,0E0],"parents":[2147483647,0,0,1,1,2,2,3,3,4,4,5,5,6,6,7,7,8,8,10,10,11,11,12,12],"right_children":[2,4,6,8,10,12,14,16,18,-1,20,22,24,-1,-1,-1,-1,-1,-1,-1,-1,-1,-1,-1,-1],"split_conditions":[1.5557803E2,6.1E1,3.0807732E4,1.2E-1,1.3053057E4,2.272107E4,2.2E1,2E0,7.6715537E3,-1.7943247E1,1.5608746E-1,5.284686E-1,2.3013772E-1,7.289911E1,1.3266982E2,-8.9204216E1,-3.5391018E1,-4.1156013E1,-2.1567041E1,-5.682039E0,8.578896E0,-1.9439304E1,1.9563023E1,4.6378963E1,2.0242027E1],"split_indices":[3,15,6,2,6,6,15,0,5,0,8,12,8,0,0,0,0,0,0,0,0,0,0,0,0],"split_type":[0,0,0,0,0,0,0,0,0,0,0,0,0,0,0,0,0,0,0,0,0,0,0,0,0],"sum_hessian":[2.46E2,1.4E2,1.06E2,1.13E2,2.7E1,8.2E1,2.4E1,1.8E1,9.5E1,7E0,2E1,4.4E1,3.8E1,1.8E1,6E0,9E0,9E0,5.6E1,3.9E1,1E1,1E1,6E0,3.8E1,3.4E1,4E0],"tree_param":{"num_deleted":"0","num_feature":"18","num_nodes":"25","size_leaf_vector":"1"}},{"base_weights":[1.5271082E1,-3.901698E2,1.2957086E3,-7.8842584E2,4.53375E1,1.6762245E3,9.218473E2,-1.0015522E3,-6.278943E2,-8.1771065E1,1.1714178E2,1.7903937E3,2.432507E1,6.8977423E2,1.2041035E3,-5.452606E1,-3.69679E1,-3.2585922E1,-1.129676E1,-4.576207E0,1.8095367E1,6.1401245E1,1.1124349E2,2.3199413E1,3.965102E1,3.6819885E1,6.910535E1],"categories":[],"categories_nodes":[],"categories_segments":[],"categories_sizes":[],"default_left":[0,0,0,0,0,0,0,0,0,0,0,0,0,0,0,0,0,0,0,0,0,0,0,0,0,0,0],"id":48,"left_children":[1,3,5,7,9,11,13,15,17,-1,19,21,-1,23,25,-1,-1,-1,-1,-1,-1,-1,-1,-1,-1,-1,-1],"loss_changes":[1.3600163E8,3.4551064E7,7.416904E6,2.929172E6,1.1777248E7,3.203632E6,1.396388E6,1.966E5,4.46402E5,0E0,4.783054E6,3.864528E6,0E0,1.21465E5,1.47554E5,0E0,0E0,0E0,0E0,0E0,0E0,0E0,0E0,0E0,0E0,0E0,0E0],"parents":[2147483647,0,0,1,1,2,2,3,3,4,4,5,5,6,6,7,7,8,8,10,10,11,11,13,13,14,14],"right_children":[2,4,6,8,10,12,14,16,18,-1,20,22,-1,24,26,-1,-1,-1,-1,-1,-1,-1,-1,-1,-1,-1,-1],"split_conditions":[3E0,1.3788915E4,1.3551831E-1,6.6651406E3,1.2E-1,5.2417624E-3,2E1,6.7769E5,4.27564E1,-8.1771065E1,1.5465543E4,1.374877E3,2.432507E1,2.5116798E2,2.6495914E4,-5.452606E1,-3.69679E1,-3.2585922E1,-1.129676E1,-4.576207E0,1.8095367E1,6.1401245E1,1.1124349E2,2.3199413E1,3.965102E1,3.6819885E1,6.910535E1],"split_indices":[0,5,8,6,2,11,15,16,17,0,6,9,0,3,6,0,0,0,0,0,0,0,0,0,0,0,0],"split_type":[0,0,0,0,0,0,0,0,0,0,0,0,0,0,0,0,0,0,0,0,0,0,0,0,0,0,0],"sum_hessian":[2.6E2,1.98E2,6.2E1,1.03E2,9.5E1,2.9E1,3.3E1,4.2E1,6.1E1,3E0,9.2E1,2.6E1,3E0,2E1,1.3E1,2.9E1,1.3E1,5.7E1,4E0,5E1,4.2E1,1.3E1,1.3E1,8E0,1.2E1,5E0,8E0],"tree_param":{"num_deleted":"0","num_feature":"18","num_nodes":"27","size_leaf_vector":"1"}},{"base_weights":[-2.405807E1,-4.920668E2,9.6422656E2,-8.327597E2,-2.626335E2,7.233499E2,1.8262684E3,-8.042251E1,-7.1784686E2,-4.6276935E2,6.7964373E0,7.87903E2,-1.496112E1,6.904409E1,1.2805545E2,-4.4107964E1,-2.8652191E1,-8.076214E0,-3.1007086E1,-1.7231463E0,2.4495993E1,2.23837E1,4.6016827E1],"categories":[],"categories_nodes":[],"categories_segments":[],"categories_sizes":[],"default_left":[0,0,0,0,0,0,0,0,0,0,0,0,0,0,0,0,0,0,0,0,0,0,0],"id":49,"left_children":[1,3,5,7,9,11,13,-1,15,17,19,21,-1,-1,-1,-1,-1,-1,-1,-1,-1,-1,-1],"loss_changes":[1.2951913E8,1.4632776E7,1.7366832E7,5.619544E6,6.204288E6,4.988544E6,2.681492E6,0E0,1.112256E6,3.028658E6,1.01359775E6,2.65178E6,0E0,0E0,0E0,0E0,0E0,0E0,0E0,0E0,0E0,0E0,0E0],"parents":[2147483647,0,0,1,1,2,2,3,3,4,4,5,5,6,6,8,8,9,9,10,10,11,11],"right_children":[2,4,6,8,10,12,14,-1,16,18,20,22,-1,-1,-1,-1,-1,-1,-1,-1,-1,-1,-1],"split_conditions":[1.8513682E4,1E0,3.1618768E4,8E-2,4.8E-1,1.6922511E-2,2.2E1,-8.042251E1,4.4E-1,9.042794E-2,4.7447E1,2E0,-1.496112E1,6.904409E1,1.2805545E2,-4.4107964E1,-2.8652191E1,-8.076214E0,-3.1007086E1,-1.7231463E0,2.4495993E1,2.23837E1,4.6016827E1],"split_indices":[6,0,6,2,2,11,15,0,2,8,17,0,0,0,0,0,0,0,0,0,0,0,0],"split_type":[0,0,0,0,0,0,0,0,0,0,0,0,0,0,0,0,0,0,0,0,0,0,0],"sum_hessian":[2.78E2,1.89E2,8.9E1,7.5E1,1.14E2,7.1E1,1.8E1,8E0,6.7E1,6.5E1,4.9E1,6.7E1,4E0,1.3E1,5E0,2.9E1,3.8E1,2.3E1,4.2E1,4.6E1,3E0,2E1,4.7E1],"tree_param":{"num_deleted":"0","num_feature":"18","num_nodes":"23","size_leaf_vector":"1"}},{"base_weights":[-1.8735836E1,-4.8827985E2,9.4240814E2,-7.0114026E2,-8.558094E1,6.6405457E2,1.5950247E3,-8.6594556E2,-5.356347E2,-7.692419E1,1.436978E1,-1.4362681E1,7.346164E2,6.071822E1,9.531007E1,-5.243001E1,-3.719034E1,-2.8009531E1,-1.1062489E1,2.3432524E1,-1.8185055E0,7.1660515E1,3.3522552E1],"categories":[],"categories_nodes":[],"categories_segments":[],"categories_sizes":[],"default_left":[0,0,0,0,0,0,0,0,0,0,0,0,0,0,0,0,0,0,0,0,0,0,0],"id":50,"left_children":[1,3,5,7,9,11,13,15,17,-1,19,-1,21,-1,-1,-1,-1,-1,-1,-1,-1,-1,-1],"loss_changes":[1.1824926E8,1.5026404E7,1.4563184E7,2.672792E6,9.025818E6,4.372882E6,6.4618E5,4.69184E5,3.3918E5,0E0,1.377047E6,0E0,1.638772E6,0E0,0E0,0E0,0E0,0E0,0E0,0E0,0E0,0E0,0E0],"parents":[2147483647,0,0,1,1,2,2,3,3,4,4,5,5,6,6,7,7,8,8,10,10,12,12],"right_children":[2,4,6,8,10,12,14,16,18,-1,20,-1,22,-1,-1,-1,-1,-1,-1,-1,-1,-1,-1],"split_conditions":[1.8513682E4,1.2567687E4,3.095262E4,7.13297E3,1.2E-1,2.06911E1,2.8524753E2,3.4882332E4,4.27564E1,-7.692419E1,-1.2123013E-2,-1.4362681E1,2.8E-1,6.071822E1,9.531007E1,-5.243001E1,-3.719034E1,-2.8009531E1,-1.1062489E1,2.3432524E1,-1.8185055E0,7.1660515E1,3.3522552E1],"split_indices":[6,6,6,6,2,17,3,9,17,0,11,0,2,0,0,0,0,0,0,0,0,0,0],"split_type":[0,0,0,0,0,0,0,0,0,0,0,0,0,0,0,0,0,0,0,0,0,0,0],"sum_hessian":[2.6E2,1.75E2,8.5E1,1.14E2,6.1E1,6.1E1,2.4E1,5.5E1,5.9E1,3E0,5.8E1,4E0,5.7E1,1.3E1,1.1E1,1.9E1,3.6E1,5.4E1,5E0,5E0,5.3E1,3E0,5.4E1],"tree_param":{"num_deleted":"0","num_feature":"18","num_nodes":"23","size_leaf_vector":"1"}},{"base_weights":[-7.708631E-2,-3.5253854E2,1.174794E3,-6.291494E2,1.890831E2,1.7210743E3,7.253424E2,-8.246169E2,-3.3512418E2,2.7892606E2,-4.723987E1,1.3608722E2,1.4008589E3,2.743509E1,4.5036217E1,-4.9321793E1,-3.0574707E1,-2.2569906E1,2.4206417E0,8.200142E0,2.8336063E1,5.523243E1,9.177292E1],"categories":[],"categories_nodes":[],"categories_segments":[],"categories_sizes":[],"default_left":[0,0,0,0,0,0,0,0,0,0,0,0,0,0,0,0,0,0,0,0,0,0,0],"id":51,"left_children":[1,3,5,7,9,11,13,15,17,19,-1,-1,21,-1,-1,-1,-1,-1,-1,-1,-1,-1,-1],"loss_changes":[1.0228189E8,2.8584506E7,1.2746392E7,6.965052E6,6.8850865E6,4.19756E6,5.27952E5,1.983192E6,2.3408525E6,1.9245185E6,0E0,0E0,6.75564E5,0E0,0E0,0E0,0E0,0E0,0E0,0E0,0E0,0E0,0E0],"parents":[2147483647,0,0,1,1,2,2,3,3,4,4,5,5,6,6,7,7,8,8,9,9,12,12],"right_children":[2,4,6,8,10,12,14,16,18,20,-1,-1,22,-1,-1,-1,-1,-1,-1,-1,-1,-1,-1],"split_conditions":[3E0,1.2797459E2,1.0266259E-1,4.4E-1,1.1186255E-1,3.23841E1,5.2E-1,1E0,1.3008194E4,2.2495236E4,-4.723987E1,1.3608722E2,3.2150846E4,2.743509E1,4.5036217E1,-4.9321793E1,-3.0574707E1,-2.2569906E1,2.4206417E0,8.200142E0,2.8336063E1,5.523243E1,9.177292E1],"split_indices":[0,3,7,2,7,17,2,0,6,5,0,0,6,0,0,0,0,0,0,0,0,0,0],"split_type":[0,0,0,0,0,0,0,0,0,0,0,0,0,0,0,0,0,0,0,0,0,0,0],"sum_hessian":[2.45E2,1.89E2,5.6E1,1.25E2,6.4E1,2.4E1,3.2E1,7.4E1,5.1E1,6E1,4E0,4E0,2E1,1.8E1,1.4E1,4E1,3.4E1,3.9E1,1.2E1,4.4E1,1.6E1,1.4E1,6E0],"tree_param":{"num_deleted":"0","num_feature":"18","num_nodes":"23","size_leaf_vector":"1"}},{"base_weights":[2.4084656E1,-3.1202872E2,1.1146825E3,-5.2699976E2,2.5647592E2,1.6125485E3,7.709044E2,-7.4678253E2,-3.4683682E2,1.6605632E2,5.637203E1,5.3166744E1,2.0731423E3,6.322808E2,7.7967186E1,-3.3211742E1,-7.939894E1,-2.9422186E1,-1.1096091E1,1.2618761E1,-2.0627941E1,4.291296E1,1.1913651E2,3.4713436E1,1.7201206E1],"categories":[],"categories_nodes":[],"categories_segments":[],"categories_sizes":[],"default_left":[0,0,0,0,0,0,0,0,0,0,0,0,0,0,0,0,0,0,0,0,0,0,0,0,0],"id":52,"left_children":[1,3,5,7,9,11,13,15,17,19,-1,-1,21,23,-1,-1,-1,-1,-1,-1,-1,-1,-1,-1,-1],"loss_changes":[9.4921544E7,2.433317E7,9.19712E6,5.442808E6,4.1440265E6,3.866388E6,3.167096E6,3.389072E6,2.313936E6,2.6513195E6,0E0,0E0,2.468028E6,3.68578E5,0E0,0E0,0E0,0E0,0E0,0E0,0E0,0E0,0E0,0E0,0E0],"parents":[2147483647,0,0,1,1,2,2,3,3,4,4,5,5,6,6,7,7,8,8,9,9,12,12,13,13],"right_children":[2,4,6,8,10,12,14,16,18,20,-1,-1,22,24,-1,-1,-1,-1,-1,-1,-1,-1,-1,-1,-1],"split_conditions":[3E0,1.4772002E4,1.012524E-1,1E0,2.0047475E4,1.9E1,2.861735E2,6.623281E1,8.911744E3,1.1004622E-1,5.637203E1,5.3166744E1,9.1534555E-2,2.2687876E-1,7.7967186E1,-3.3211742E1,-7.939894E1,-2.9422186E1,-1.1096091E1,1.2618761E1,-2.0627941E1,4.291296E1,1.1913651E2,3.4713436E1,1.7201206E1],"split_indices":[0,6,7,0,6,15,3,4,6,7,0,0,7,8,0,0,0,0,0,0,0,0,0,0,0],"split_type":[0,0,0,0,0,0,0,0,0,0,0,0,0,0,0,0,0,0,0,0,0,0,0,0,0],"sum_hessian":[2.57E2,1.97E2,6E1,1.43E2,5.4E1,2.3E1,3.7E1,6.3E1,8E1,5E1,4E0,1.2E1,1.1E1,3.3E1,4E0,5.9E1,4E0,2.6E1,5.4E1,4.4E1,6E0,3E0,8E0,2.6E1,7E0],"tree_param":{"num_deleted":"0","num_feature":"18","num_nodes":"25","size_leaf_vector":"1"}},{"base_weights":[1.8043755E1,-2.9384494E2,1.042536E3,-5.3486115E2,1.753518E2,1.4616011E3,7.2836957E2,-1.1229628E3,-4.1258902E2,1.931531E1,5.722741E2,5.0851738E1,1.8279264E3,6.2765686E2,7.137441E1,-4.6888454E1,-8.840827E1,-3.0165155E1,-1.0737979E1,1.0402766E1,-1.9074987E1,-4.219727E-2,4.4047436E1,3.984494E1,1.0287673E2,3.4128292E1,1.5524872E1],"categories":[],"categories_nodes":[],"categories_segments":[],"categories_sizes":[],"default_left":[0,0,0,0,0,0,0,0,0,0,0,0,0,0,0,0,0,0,0,0,0,0,0,0,0,0,0],"id":53,"left_children":[1,3,5,7,9,11,13,15,17,19,21,-1,23,25,-1,-1,-1,-1,-1,-1,-1,-1,-1,-1,-1,-1,-1],"loss_changes":[8.625933E7,2.3502216E7,7.229544E6,9.38798E6,4.386227E6,2.374904E6,1.779404E6,1.08981E6,4.209174E6,4.0131472E6,3.538972E6,0E0,1.437592E6,3.97488E5,0E0,0E0,0E0,0E0,0E0,0E0,0E0,0E0,0E0,0E0,0E0,0E0,0E0],"parents":[2147483647,0,0,1,1,2,2,3,3,4,4,5,5,6,6,7,7,8,8,9,9,10,10,12,12,13,13],"right_children":[2,4,6,8,10,12,14,16,18,20,22,-1,24,26,-1,-1,-1,-1,-1,-1,-1,-1,-1,-1,-1,-1,-1],"split_conditions":[3E0,1.2797459E2,1.012524E-1,1.2E-1,8.569886E-1,1.9E1,3.0811646E2,1.0121528E2,6.3934597E1,1.0755324E-1,1.5631842E2,5.0851738E1,1.0795333E3,2.2687876E-1,7.137441E1,-4.6888454E1,-8.840827E1,-3.0165155E1,-1.0737979E1,1.0402766E1,-1.9074987E1,-4.219727E-2,4.4047436E1,3.984494E1,1.0287673E2,3.4128292E1,1.5524872E1],"split_indices":[0,3,7,2,12,15,3,3,3,7,3,0,9,8,0,0,0,0,0,0,0,0,0,0,0,0,0],"split_type":[0,0,0,0,0,0,0,0,0,0,0,0,0,0,0,0,0,0,0,0,0,0,0,0,0,0,0],"sum_hessian":[2.68E2,2.06E2,6.2E1,1.36E2,7E1,2.5E1,3.7E1,2.2E1,1.14E2,5.1E1,1.9E1,1.3E1,1.2E1,3.4E1,3E0,1.9E1,3E0,5.7E1,5.7E1,3.5E1,1.6E1,7E0,1.2E1,3E0,9E0,2.8E1,6E0],"tree_param":{"num_deleted":"0","num_feature":"18","num_nodes":"27","size_leaf_vector":"1"}},{"base_weights":[1.2400726E1,-3.3088522E2,7.944155E2,-5.3035E2,3.892978E1,5.9541943E2,1.4357067E3,-6.7739764E2,-3.7431158E2,-6.807346E1,1.3012267E2,3.4202927E2,6.99426E2,4.7500534E1,8.2920616E1,-4.3125767E1,-2.9734222E1,6.749243E-1,-2.1338915E1,7.993349E1,-4.8916873E-2,2.0412956E1,3.0833948E0,4.1752384E1,2.508519E1],"categories":[],"categories_nodes":[],"categories_segments":[],"categories_sizes":[],"default_left":[0,0,0,0,0,0,0,0,0,0,0,0,0,0,0,0,0,0,0,0,0,0,0,0,0],"id":54,"left_children":[1,3,5,7,9,11,13,15,17,-1,19,21,23,-1,-1,-1,-1,-1,-1,-1,-1,-1,-1,-1,-1],"loss_changes":[6.9524216E7,1.3298404E7,9.226484E6,2.43091E6,8.350246E6,1.394636E6,3.7124E5,3.90318E5,1.206283E6,0E0,1.1745932E7,3.461425E5,7.33982E5,0E0,0E0,0E0,0E0,0E0,0E0,0E0,0E0,0E0,0E0,0E0,0E0],"parents":[2147483647,0,0,1,1,2,2,3,3,4,4,5,5,6,6,7,7,8,8,10,10,11,11,12,12],"right_children":[2,4,6,8,10,12,14,16,18,-1,20,22,24,-1,-1,-1,-1,-1,-1,-1,-1,-1,-1,-1,-1],"split_conditions":[1.8553233E2,1.3008194E4,3.1618768E4,7.467546E3,1.2E-1,2.272107E4,1.0590946E3,5.1437935E3,7.9136126E-2,-6.807346E1,2.8E-1,1.04197584E-1,1.1115935E-1,4.7500534E1,8.2920616E1,-4.3125767E1,-2.9734222E1,6.749243E-1,-2.1338915E1,7.993349E1,-4.8916873E-2,2.0412956E1,3.0833948E0,4.1752384E1,2.508519E1],"split_indices":[3,6,6,6,2,6,9,6,8,0,2,7,7,0,0,0,0,0,0,0,0,0,0,0,0],"split_type":[0,0,0,0,0,0,0,0,0,0,0,0,0,0,0,0,0,0,0,0,0,0,0,0,0],"sum_hessian":[2.57E2,1.79E2,7.8E1,1.16E2,6.3E1,6.1E1,1.7E1,5.8E1,5.8E1,3E0,6E1,1.9E1,4.2E1,7E0,1E1,1.5E1,4.3E1,7E0,5.1E1,4E0,5.6E1,1.5E1,4E0,2.3E1,1.9E1],"tree_param":{"num_deleted":"0","num_feature":"18","num_nodes":"25","size_leaf_vector":"1"}},{"base_weights":[2.1918634E1,-2.5163403E2,9.7458887E2,-4.4118314E2,2.1570085E2,1.4157075E3,6.382707E2,-1.0167351E3,-3.670841E2,6.8833824E1,4.361814E2,1.3387495E2,1.1347087E3,7.328341E2,3.09656E2,-6.1558468E1,-2.0919716E1,-2.3139526E1,4.297424E-1,9.778515E0,-3.7430446E0,1.6480429E1,4.5663082E1,4.3760815E1,8.620257E1,5.0139706E1,2.7608723E1,1.9794209E1,4.065889E0],"categories":[],"categories_nodes":[],"categories_segments":[],"categories_sizes":[],"default_left":[0,0,0,0,0,0,0,0,0,0,0,0,0,0,0,0,0,0,0,0,0,0,0,0,0,0,0,0,0],"id":55,"left_children":[1,3,5,7,9,11,13,15,17,19,21,-1,23,25,27,-1,-1,-1,-1,-1,-1,-1,-1,-1,-1,-1,-1,-1,-1],"loss_changes":[7.243303E7,1.9229096E7,8.294276E6,6.194402E6,2.0099482E6,6.180044E6,9.22742E5,1.665902E6,4.965796E6,7.2489575E5,9.69952E5,0E0,2.008212E6,8.11713E5,1.6465175E5,0E0,0E0,0E0,0E0,0E0,0E0,0E0,0E0,0E0,0E0,0E0,0E0,0E0,0E0],"parents":[2147483647,0,0,1,1,2,2,3,3,4,4,5,5,6,6,7,7,8,8,9,9,10,10,12,12,13,13,14,14],"right_children":[2,4,6,8,10,12,14,16,18,20,22,-1,24,26,28,-1,-1,-1,-1,-1,-1,-1,-1,-1,-1,-1,-1,-1,-1],"split_conditions":[3E0,1.4772002E4,1.0266259E-1,1.2E-1,1.8518066E2,8.1778985E-1,6.140891E4,1.19859084E-1,1.3008194E4,-2.6245334E-4,3.8014E5,1.3387495E2,2.8572968E2,1.0901604E-1,2.2687876E-1,-6.1558468E1,-2.0919716E1,-2.3139526E1,4.297424E-1,9.778515E0,-3.7430446E0,1.6480429E1,4.5663082E1,4.3760815E1,8.620257E1,5.0139706E1,2.7608723E1,1.9794209E1,4.065889E0],"split_indices":[0,6,7,2,3,12,13,7,6,11,16,0,3,7,8,0,0,0,0,0,0,0,0,0,0,0,0,0,0],"split_type":[0,0,0,0,0,0,0,0,0,0,0,0,0,0,0,0,0,0,0,0,0,0,0,0,0,0,0,0,0],"sum_hessian":[2.76E2,2.15E2,6.1E1,1.53E2,6.2E1,2.5E1,3.6E1,1.6E1,1.37E2,3.8E1,2.4E1,3E0,2.2E1,2.7E1,9E0,1.1E1,5E0,1.09E2,2.8E1,2E1,1.8E1,2.1E1,3E0,1.7E1,5E0,9E0,1.8E1,6E0,3E0],"tree_param":{"num_deleted":"0","num_feature":"18","num_nodes":"29","size_leaf_vector":"1"}},{"base_weights":[2.0507236E1,-2.4481691E2,8.751167E2,-4.5253247E2,1.5630597E2,1.2873876E3,5.8839905E2,-9.0430066E2,-3.6057202E2,3.1743296E1,4.2663165E2,1.2375808E2,5.0645325E1,9.5208813E2,4.9341956E2,-1.0897593E1,-5.4667065E1,-2.4390444E1,-4.8303456E0,-5.0007544E0,1.6853498E1,1.6547758E1,3.87206E1,2.4014376E1,5.9292084E1,1.3187129E1,2.7818125E1],"categories":[],"categories_nodes":[],"categories_segments":[],"categories_sizes":[],"default_left":[0,0,0,0,0,0,0,0,0,0,0,0,0,0,0,0,0,0,0,0,0,0,0,0,0,0,0],"id":56,"left_children":[1,3,5,7,9,11,13,15,17,19,21,-1,-1,23,25,-1,-1,-1,-1,-1,-1,-1,-1,-1,-1,-1,-1],"loss_changes":[6.0302668E7,1.6984614E7,6.689252E6,5.240812E6,2.3434858E6,5.64308E6,8.77254E5,2.616026E6,3.748044E6,2.0049738E6,4.7563075E5,0E0,0E0,2.02284E5,3.302475E5,0E0,0E0,0E0,0E0,0E0,0E0,0E0,0E0,0E0,0E0,0E0,0E0],"parents":[2147483647,0,0,1,1,2,2,3,3,4,4,5,5,6,6,7,7,8,8,9,9,10,10,13,13,14,14],"right_children":[2,4,6,8,10,12,14,16,18,20,22,-1,-1,24,26,-1,-1,-1,-1,-1,-1,-1,-1,-1,-1,-1,-1],"split_conditions":[3E0,1.2826157E2,1.012524E-1,1.2E-1,1.8553233E2,3.20278E1,-8.601347E-3,7E0,9.665478E-2,8.7508774E-1,3.8014E5,1.2375808E2,5.0645325E1,2.5579004E2,2.5116798E2,-1.0897593E1,-5.4667065E1,-2.4390444E1,-4.8303456E0,-5.0007544E0,1.6853498E1,1.6547758E1,3.87206E1,2.4014376E1,5.9292084E1,1.3187129E1,2.7818125E1],"split_indices":[0,3,7,2,3,17,11,15,7,12,16,0,0,3,3,0,0,0,0,0,0,0,0,0,0,0,0],"split_type":[0,0,0,0,0,0,0,0,0,0,0,0,0,0,0,0,0,0,0,0,0,0,0,0,0,0,0],"sum_hessian":[2.64E2,2.02E2,6.2E1,1.33E2,6.9E1,2.4E1,3.8E1,2.1E1,1.12E2,4.8E1,2.1E1,3E0,2.1E1,6E0,3.2E1,5E0,1.6E1,7.5E1,3.7E1,3.4E1,1.4E1,1.8E1,3E0,3E0,3E0,8E0,2.4E1],"tree_param":{"num_deleted":"0","num_feature":"18","num_nodes":"27","size_leaf_vector":"1"}},{"base_weights":[8.513655E0,-2.6572214E2,8.5285223E2,-4.4968616E2,1.1497956E2,7.330168E2,9.345516E1,-6.376168E2,-2.7157867E2,1.8631995E2,-5.0084064E1,8.814006E1,6.4479395E2,-2.8739552E1,-7.10287E1,-1.7624704E1,3.5737152E0,3.751352E0,2.4731792E1,1.3441658E1,3.5625256E1],"categories":[],"categories_nodes":[],"categories_segments":[],"categories_sizes":[],"default_left":[0,0,0,0,0,0,0,0,0,0,0,0,0,0,0,0,0,0,0,0,0],"id":57,"left_children":[1,3,5,7,9,11,-1,13,15,17,-1,-1,19,-1,-1,-1,-1,-1,-1,-1,-1],"loss_changes":[5.9502932E7,1.3638608E7,6.301976E6,4.21156E6,5.2849855E6,4.132446E6,0E0,2.28223E6,1.940543E6,2.0559475E6,0E0,0E0,1.208478E6,0E0,0E0,0E0,0E0,0E0,0E0,0E0,0E0],"parents":[2147483647,0,0,1,1,2,2,3,3,4,4,5,5,7,7,8,8,9,9,12,12],"right_children":[2,4,6,8,10,12,-1,14,16,18,-1,-1,20,-1,-1,-1,-1,-1,-1,-1,-1],"split_conditions":[3E0,1.4161507E4,3.3279703E4,2.4E1,2.0765314E2,1.2499084E2,9.345516E1,1.1478783E2,1.3053057E4,2.2624404E4,-5.0084064E1,8.814006E1,2.5116798E2,-2.8739552E1,-7.10287E1,-1.7624704E1,3.5737152E0,3.751352E0,2.4731792E1,1.3441658E1,3.5625256E1],"split_indices":[0,6,6,15,4,4,0,3,6,5,0,0,3,0,0,0,0,0,0,0,0],"split_type":[0,0,0,0,0,0,0,0,0,0,0,0,0,0,0,0,0,0,0,0,0],"sum_hessian":[2.55E2,1.93E2,6.2E1,1.3E2,6.3E1,5.7E1,5E0,6.2E1,6.8E1,6E1,3E0,3E0,5.4E1,5.9E1,3E0,5.5E1,1.3E1,4.5E1,1.5E1,9E0,4.5E1],"tree_param":{"num_deleted":"0","num_feature":"18","num_nodes":"21","size_leaf_vector":"1"}},{"base_weights":[3.955772E1,-2.2298991E2,8.191356E2,-4.2937506E2,8.6784294E1,6.41345E2,1.3790887E3,-6.626709E2,-3.4538632E2,-5.9045803E1,1.483166E2,6.90625E2,2.0474966E2,1.5350803E3,2.6365936E1,-3.4575905E1,-1.4391805E1,-3.3043003E0,-1.8529907E1,6.677941E1,3.4646778E0,3.8494904E1,2.1872126E1,-1.8543652E0,1.9771212E1,4.9357964E1,9.31845E1],"categories":[],"categories_nodes":[],"categories_segments":[],"categories_sizes":[],"default_left":[0,0,0,0,0,0,0,0,0,0,0,0,0,0,0,0,0,0,0,0,0,0,0,0,0,0,0],"id":58,"left_children":[1,3,5,7,9,11,13,15,17,-1,19,21,23,25,-1,-1,-1,-1,-1,-1,-1,-1,-1,-1,-1,-1,-1],"loss_changes":[5.687806E7,1.3335321E7,6.084136E6,2.220298E6,6.727427E6,1.041854E6,1.31622E6,1.46871E5,6.37382E5,0E0,7.506879E6,6.46552E5,3.3748616E5,5.00634E5,0E0,0E0,0E0,0E0,0E0,0E0,0E0,0E0,0E0,0E0,0E0,0E0,0E0],"parents":[2147483647,0,0,1,1,2,2,3,3,4,4,5,5,6,6,7,7,8,8,10,10,11,11,12,12,13,13],"right_children":[2,4,6,8,10,12,14,16,18,-1,20,22,24,26,-1,-1,-1,-1,-1,-1,-1,-1,-1,-1,-1,-1,-1],"split_conditions":[2.0047475E4,1.3053057E4,2.842163E2,6.183432E3,1.2E-1,8.408374E-3,2.9242627E2,9.178444E-2,8.513414E-2,-5.9045803E1,2.8E-1,1.1102192E-1,1.4580058E-1,2.8833664E2,2.6365936E1,-3.4575905E1,-1.4391805E1,-3.3043003E0,-1.8529907E1,6.677941E1,3.4646778E0,3.8494904E1,2.1872126E1,-1.8543652E0,1.9771212E1,4.9357964E1,9.31845E1],"split_indices":[6,6,3,6,2,11,4,7,8,0,2,7,8,3,0,0,0,0,0,0,0,0,0,0,0,0,0],"split_type":[0,0,0,0,0,0,0,0,0,0,0,0,0,0,0,0,0,0,0,0,0,0,0,0,0,0,0],"sum_hessian":[2.76E2,2.07E2,6.9E1,1.24E2,8.3E1,5.4E1,1.5E1,3.1E1,9.3E1,3E0,8E1,4.8E1,6E0,1.2E1,3E0,2.8E1,3E0,8E0,8.5E1,4E0,7.6E1,3.5E1,1.3E1,3E0,3E0,6E0,6E0],"tree_param":{"num_deleted":"0","num_feature":"18","num_nodes":"27","size_leaf_vector":"1"}},{"base_weights":[3.1139526E1,-2.2259946E2,8.4653046E2,-3.7233783E2,1.5545479E2,6.687685E2,1.4463154E3,-5.305924E2,-2.1945296E2,-2.1159079E1,2.1575414E2,4.998283E2,1.1902418E3,4.6494698E1,8.586912E1,-4.3986614E1,-2.044461E1,-1.9747229E1,-6.7070518E0,5.281318E0,2.2785145E1,2.7625944E1,1.2554099E1,9.9624535E1,3.507133E1],"categories":[],"categories_nodes":[],"categories_segments":[],"categories_sizes":[],"default_left":[0,0,0,0,0,0,0,0,0,0,0,0,0,0,0,0,0,0,0,0,0,0,0,0,0],"id":59,"left_children":[1,3,5,7,9,11,13,15,17,-1,19,21,23,-1,-1,-1,-1,-1,-1,-1,-1,-1,-1,-1,-1],"loss_changes":[5.6671236E7,1.1889231E7,5.962768E6,3.512696E6,2.184766E6,3.986002E6,3.6254E5,2.741952E6,1.1147478E6,0E0,1.4051855E6,3.98562E5,3.307962E6,0E0,0E0,0E0,0E0,0E0,0E0,0E0,0E0,0E0,0E0,0E0,0E0],"parents":[2147483647,0,0,1,1,2,2,3,3,4,4,5,5,6,6,7,7,8,8,10,10,11,11,12,12],"right_children":[2,4,6,8,10,12,14,16,18,-1,20,22,24,-1,-1,-1,-1,-1,-1,-1,-1,-1,-1,-1,-1],"split_conditions":[3E0,1.4772002E4,3.236605E4,1E0,2.06911E1,2.35E5,2.8675766E2,3.37557E5,9.329003E3,-2.1159079E1,2.2624404E4,6.140891E4,2.4749055E2,4.6494698E1,8.586912E1,-4.3986614E1,-2.044461E1,-1.9747229E1,-6.7070518E0,5.281318E0,2.2785145E1,2.7625944E1,1.2554099E1,9.9624535E1,3.507133E1],"split_indices":[0,6,6,0,17,16,3,16,6,0,5,13,3,0,0,0,0,0,0,0,0,0,0,0,0],"split_type":[0,0,0,0,0,0,0,0,0,0,0,0,0,0,0,0,0,0,0,0,0,0,0,0,0],"sum_hessian":[2.72E2,2.08E2,6.4E1,1.49E2,5.9E1,5.1E1,1.3E1,7.2E1,7.7E1,5E0,5.4E1,4E1,1.1E1,6E0,7E0,1.7E1,5.5E1,2.4E1,5.3E1,3.8E1,1.6E1,3.2E1,8E0,3E0,8E0],"tree_param":{"num_deleted":"0","num_feature":"18","num_nodes":"25","size_leaf_vector":"1"}},{"base_weights":[1.678234E1,-2.6852866E2,6.0645135E2,-4.2052963E2,-1.497526E1,4.902497E2,1.3112163E3,-2.7139694E2,-4.9644708E2,-5.611407E1,5.1354588E1,-1.6376179E1,5.38881E2,2.7177048E1,8.135494E1,-1.6021698E1,3.402068E0,-3.542801E1,-2.202709E1,5.7539173E1,-2.7934222E0,3.679139E1,2.2615473E1],"categories":[],"categories_nodes":[],"categories_segments":[],"categories_sizes":[],"default_left":[0,0,0,0,0,0,0,0,0,0,0,0,0,0,0,0,0,0,0,0,0,0,0],"id":60,"left_children":[1,3,5,7,9,11,13,15,17,-1,19,-1,21,-1,-1,-1,-1,-1,-1,-1,-1,-1,-1],"loss_changes":[4.5923908E7,7.085085E6,6.645638E6,1.167192E6,5.1990625E6,3.278528E6,2.02533E6,7.0427475E5,5.77104E5,0E0,7.9626365E6,0E0,9.2876E5,0E0,0E0,0E0,0E0,0E0,0E0,0E0,0E0,0E0,0E0],"parents":[2147483647,0,0,1,1,2,2,3,3,4,4,5,5,6,6,7,7,8,8,10,10,12,12],"right_children":[2,4,6,8,10,12,14,16,18,-1,20,-1,22,-1,-1,-1,-1,-1,-1,-1,-1,-1,-1],"split_conditions":[1.8553233E2,1.2008101E2,2.861735E2,1.3168229E-1,1.2E-1,2.06911E1,1.1E1,1.07507125E-1,1.2851383E4,-5.611407E1,2.8E-1,-1.6376179E1,1.012524E-1,2.7177048E1,8.135494E1,-1.6021698E1,3.402068E0,-3.542801E1,-2.202709E1,5.7539173E1,-2.7934222E0,3.679139E1,2.2615473E1],"split_indices":[3,3,3,8,2,17,15,7,9,0,2,0,7,0,0,0,0,0,0,0,0,0,0],"split_type":[0,0,0,0,0,0,0,0,0,0,0,0,0,0,0,0,0,0,0,0,0,0,0],"sum_hessian":[2.71E2,1.83E2,8.8E1,1.14E2,6.9E1,7.7E1,1.1E1,4E1,7.4E1,3E0,6.6E1,4E0,7.3E1,4E0,7E0,3.5E1,5E0,1.3E1,6.1E1,5E0,6.1E1,2E1,5.3E1],"tree_param":{"num_deleted":"0","num_feature":"18","num_nodes":"23","size_leaf_vector":"1"}},{"base_weights":[2.4424734E1,-2.1490602E2,6.568427E2,-4.9384006E2,-5.9214397E1,5.015686E2,1.2753785E3,-5.4951954E1,-4.0778308E2,2.3610443E1,-4.2755545E2,3.948665E2,8.2394946E2,3.2334408E1,7.763929E1,-1.2623893E1,-2.4058462E1,-1.1263533E1,6.694886E0,-2.810401E1,2.3630705E0,8.117408E0,2.4429398E1,5.066545E1,2.449086E1],"categories":[],"categories_nodes":[],"categories_segments":[],"categories_sizes":[],"default_left":[0,0,0,0,0,0,0,0,0,0,0,0,0,0,0,0,0,0,0,0,0,0,0,0,0],"id":61,"left_children":[1,3,5,7,9,11,13,-1,15,17,19,21,23,-1,-1,-1,-1,-1,-1,-1,-1,-1,-1,-1,-1],"loss_changes":[4.0250828E7,8.352248E6,6.371242E6,3.145308E6,3.823609E6,1.738451E6,1.437258E6,0E0,5.85072E5,2.8573412E6,1.4957325E6,9.44836E5,3.8931E5,0E0,0E0,0E0,0E0,0E0,0E0,0E0,0E0,0E0,0E0,0E0,0E0],"parents":[2147483647,0,0,1,1,2,2,3,3,4,4,5,5,6,6,8,8,9,9,10,10,11,11,12,12],"right_children":[2,4,6,8,10,12,14,-1,16,18,20,22,24,-1,-1,-1,-1,-1,-1,-1,-1,-1,-1,-1,-1],"split_conditions":[1.9294566E4,1E0,3.236605E4,8E-2,1.1186255E-1,2.738E5,1E1,-5.4951954E1,1.3168229E-1,1.3053057E4,9.505104E-1,3.1469318E4,1.035258E-1,3.2334408E1,7.763929E1,-1.2623893E1,-2.4058462E1,-1.1263533E1,6.694886E0,-2.810401E1,2.3630705E0,8.117408E0,2.4429398E1,5.066545E1,2.449086E1],"split_indices":[6,0,6,2,7,16,15,0,8,6,12,5,7,0,0,0,0,0,0,0,0,0,0,0,0],"split_type":[0,0,0,0,0,0,0,0,0,0,0,0,0,0,0,0,0,0,0,0,0,0,0,0,0],"sum_hessian":[2.64E2,1.92E2,7.2E1,6.8E1,1.24E2,5.9E1,1.3E1,7E0,6.1E1,1.02E2,2.2E1,4.6E1,1.3E1,5E0,8E0,2.1E1,4E1,3.1E1,7.1E1,1.7E1,5E0,1.4E1,3.2E1,7E0,6E0],"tree_param":{"num_deleted":"0","num_feature":"18","num_nodes":"25","size_leaf_vector":"1"}},{"base_weights":[1.0349159E1,-1.8352383E2,6.938267E2,-3.223434E2,1.7283163E2,8.54777E2,3.2693274E2,-6.705002E2,-2.579733E2,2.249096E2,-2.8670197E1,8.330368E1,7.4088635E2,3.6762277E2,4.120723E0,-4.9558006E1,-1.6033926E1,-1.9898973E1,-6.2383246E0,7.9561677E0,4.1888515E1,2.3848482E1,5.3928253E1,9.218208E0,1.9786184E1],"categories":[],"categories_nodes":[],"categories_segments":[],"categories_sizes":[],"default_left":[0,0,0,0,0,0,0,0,0,0,0,0,0,0,0,0,0,0,0,0,0,0,0,0,0],"id":62,"left_children":[1,3,5,7,9,11,13,15,17,19,-1,-1,21,23,-1,-1,-1,-1,-1,-1,-1,-1,-1,-1,-1],"loss_changes":[3.41819E7,9.999018E6,3.086374E6,3.076516E6,2.344088E6,2.368952E6,1.5869712E5,2.149849E6,2.262865E6,2.0437532E6,0E0,0E0,2.693688E6,9.3805E3,0E0,0E0,0E0,0E0,0E0,0E0,0E0,0E0,0E0,0E0,0E0],"parents":[2147483647,0,0,1,1,2,2,3,3,4,4,5,5,6,6,7,7,8,8,9,9,12,12,13,13],"right_children":[2,4,6,8,10,12,14,16,18,20,-1,-1,22,24,-1,-1,-1,-1,-1,-1,-1,-1,-1,-1,-1],"split_conditions":[3E0,1.4772002E4,1.9517069E-1,1.2E-1,1.9078607E2,2E-1,2.3216201E-1,2E0,7.6715537E3,2.0047475E4,-2.8670197E1,8.330368E1,3.20002E4,-5.0663674E-1,4.120723E0,-4.9558006E1,-1.6033926E1,-1.9898973E1,-6.2383246E0,7.9561677E0,4.1888515E1,2.3848482E1,5.3928253E1,9.218208E0,1.9786184E1],"split_indices":[0,6,8,2,4,2,8,0,5,6,0,0,6,10,0,0,0,0,0,0,0,0,0,0,0],"split_type":[0,0,0,0,0,0,0,0,0,0,0,0,0,0,0,0,0,0,0,0,0,0,0,0,0],"sum_hessian":[2.56E2,2E2,5.6E1,1.44E2,5.6E1,3.8E1,1.8E1,2.1E1,1.23E2,5.3E1,3E0,3E0,3.5E1,1.5E1,3E0,1E1,1.1E1,5.9E1,6.4E1,4.9E1,4E0,2.1E1,1.4E1,3E0,1.2E1],"tree_param":{"num_deleted":"0","num_feature":"18","num_nodes":"25","size_leaf_vector":"1"}},{"base_weights":[-2.7541165E0,-2.8811954E2,3.8112375E2,-3.9919443E2,-1.1587184E2,1.6754166E2,6.4688434E2,-1.5321431E2,-4.5695563E2,-2.2904077E2,6.813613E1,2.2717972E2,-3.5052255E2,5.6962897E2,6.9644455E1,1.4477498E1,-1.2716786E1,-2.1169273E1,-4.692811E1,-1.3038033E1,-4.8923864E0,1.2104668E1,-3.6702135E0,-3.9916902E0,1.5450396E1,1.5560377E0,-3.222801E1,3.1944616E1,1.2472762E1],"categories":[],"categories_nodes":[],"categories_segments":[],"categories_sizes":[],"default_left":[0,0,0,0,0,0,0,0,0,0,0,0,0,0,0,0,0,0,0,0,0,0,0,0,0,0,0,0,0],"id":63,"left_children":[1,3,5,7,9,11,13,15,17,19,21,23,25,27,-1,-1,-1,-1,-1,-1,-1,-1,-1,-1,-1,-1,-1,-1,-1],"loss_changes":[2.9029804E7,2.861818E6,6.305614E6,1.237071E6,1.2858852E6,2.0569854E6,2.088018E6,9.243254E5,7.98895E5,1.325835E5,6.08715E5,1.481789E6,8.05643E5,8.82822E5,0E0,0E0,0E0,0E0,0E0,0E0,0E0,0E0,0E0,0E0,0E0,0E0,0E0,0E0,0E0],"parents":[2147483647,0,0,1,1,2,2,3,3,4,4,5,5,6,6,7,7,8,8,9,9,10,10,11,11,12,12,13,13],"right_children":[2,4,6,8,10,12,14,16,18,20,22,24,26,28,-1,-1,-1,-1,-1,-1,-1,-1,-1,-1,-1,-1,-1,-1,-1],"split_conditions":[1.5465543E4,3.1E1,2.4583852E4,9.264661E-2,1.3053057E4,7.509585E-3,8.4E-1,-6.3603474E-3,1.2477614E4,1.2829863E4,1.243827E2,5E0,2E0,5.2417624E-3,6.9644455E1,1.4477498E1,-1.2716786E1,-2.1169273E1,-4.692811E1,-1.3038033E1,-4.8923864E0,1.2104668E1,-3.6702135E0,-3.9916902E0,1.5450396E1,1.5560377E0,-3.222801E1,3.1944616E1,1.2472762E1],"split_indices":[6,15,6,8,6,11,2,11,6,6,4,15,0,11,0,0,0,0,0,0,0,0,0,0,0,0,0,0,0],"split_type":[0,0,0,0,0,0,0,0,0,0,0,0,0,0,0,0,0,0,0,0,0,0,0,0,0,0,0,0,0],"sum_hessian":[2.63E2,1.51E2,1.12E2,9.1E1,6E1,6.3E1,4.9E1,1.8E1,7.3E1,3.7E1,2.3E1,5.7E1,6E0,4.6E1,3E0,3E0,1.5E1,7E1,3E0,2.9E1,8E0,1E1,1.3E1,1.2E1,4.5E1,3E0,3E0,3.7E1,9E0],"tree_param":{"num_deleted":"0","num_feature":"18","num_nodes":"29","size_leaf_vector":"1"}},{"base_weights":[3.2378952E1,-1.5071593E2,5.6289294E2,-3.5531198E2,3.6166634E1,4.8005515E2,7.7187675E1,-2.2798192E2,-4.4839893E2,-5.0291073E1,7.58963E1,5.8801434E2,3.1253506E2,-1.3007851E1,-6.1587424E0,-1.4742546E1,-2.5191505E1,8.54114E1,5.2485335E-1,1.4843722E1,3.2121037E1,1.9200455E1,4.291819E0],"categories":[],"categories_nodes":[],"categories_segments":[],"categories_sizes":[],"default_left":[0,0,0,0,0,0,0,0,0,0,0,0,0,0,0,0,0,0,0,0,0,0,0],"id":64,"left_children":[1,3,5,7,9,11,-1,13,15,-1,17,19,21,-1,-1,-1,-1,-1,-1,-1,-1,-1,-1],"loss_changes":[2.6505434E7,7.774676E6,4.946374E6,1.047425E6,4.5058145E6,1.009767E6,0E0,1.1292025E5,3.19489E5,0E0,1.1084234E7,4.26943E5,4.20677E5,0E0,0E0,0E0,0E0,0E0,0E0,0E0,0E0,0E0,0E0],"parents":[2147483647,0,0,1,1,2,2,3,3,4,4,5,5,7,7,8,8,10,10,11,11,12,12],"right_children":[2,4,6,8,10,12,-1,14,16,-1,18,20,22,-1,-1,-1,-1,-1,-1,-1,-1,-1,-1],"split_conditions":[1.9349453E4,1.3788915E4,8.4E-1,1.4418717E-1,1.2E-1,1.07799165E-1,7.7187675E1,1.088321E6,8.0296665E-2,-5.0291073E1,2.4E-1,-4.7571594E-1,3.307503E4,-1.3007851E1,-6.1587424E0,-1.4742546E1,-2.5191505E1,8.54114E1,5.2485335E-1,1.4843722E1,3.2121037E1,1.9200455E1,4.291819E0],"split_indices":[6,5,2,8,2,7,0,16,7,0,2,10,9,0,0,0,0,0,0,0,0,0,0],"split_type":[0,0,0,0,0,0,0,0,0,0,0,0,0,0,0,0,0,0,0,0,0,0,0],"sum_hessian":[2.71E2,2.02E2,6.9E1,9.6E1,1.06E2,6.5E1,4E0,4.2E1,5.4E1,3E0,1.03E2,3.8E1,2.7E1,3.1E1,1.1E1,1.6E1,3.8E1,3E0,1E2,7E0,3.1E1,2E1,7E0],"tree_param":{"num_deleted":"0","num_feature":"18","num_nodes":"23","size_leaf_vector":"1"}},{"base_weights":[1.2932464E1,-1.7155612E2,6.2062714E2,-2.833073E2,1.0220446E2,7.5612595E1,5.315245E2,-6.2947577E2,-2.1856047E2,1.4688751E2,-2.744422E1,3.8799872E2,9.446322E2,-2.617111E0,-3.9806805E1,-1.7335325E1,-5.5848665E0,4.2089577E0,3.848285E1,2.094804E1,3.1341171E0,1.8317623E1,5.345155E1],"categories":[],"categories_nodes":[],"categories_segments":[],"categories_sizes":[],"default_left":[0,0,0,0,0,0,0,0,0,0,0,0,0,0,0,0,0,0,0,0,0,0,0],"id":65,"left_children":[1,3,5,7,9,-1,11,13,15,17,-1,19,21,-1,-1,-1,-1,-1,-1,-1,-1,-1,-1],"loss_changes":[2.9367938E7,6.178179E6,4.042212E6,3.06744E6,1.79705E6,0E0,3.012971E6,2.074319E6,1.631907E6,2.1220852E6,0E0,4.168795E5,6.15336E5,0E0,0E0,0E0,0E0,0E0,0E0,0E0,0E0,0E0,0E0],"parents":[2147483647,0,0,1,1,2,2,3,3,4,4,6,6,7,7,8,8,9,9,11,11,12,12],"right_children":[2,4,6,8,10,-1,12,14,16,18,-1,20,22,-1,-1,-1,-1,-1,-1,-1,-1,-1,-1],"split_conditions":[3E0,1.4772002E4,1.2499084E2,1.2E-1,1.9078607E2,7.5612595E1,3.236605E4,7E0,7.6715537E3,1.9497498E4,-2.744422E1,2.2687876E-1,7E0,-2.617111E0,-3.9806805E1,-1.7335325E1,-5.5848665E0,4.2089577E0,3.848285E1,2.094804E1,3.1341171E0,1.8317623E1,5.345155E1],"split_indices":[0,6,4,2,4,0,6,15,5,6,0,8,15,0,0,0,0,0,0,0,0,0,0],"split_type":[0,0,0,0,0,0,0,0,0,0,0,0,0,0,0,0,0,0,0,0,0,0,0],"sum_hessian":[2.6E2,2E2,6E1,1.42E2,5.8E1,4E0,5.6E1,2.1E1,1.21E2,5.5E1,3E0,4.3E1,1.3E1,5E0,1.6E1,5.4E1,6.7E1,5.1E1,4E0,3.9E1,4E0,3E0,1E1],"tree_param":{"num_deleted":"0","num_feature":"18","num_nodes":"23","size_leaf_vector":"1"}},{"base_weights":[1.4481082E0,-1.6993088E2,6.0851355E2,-3.106363E2,4.3149025E1,7.2588066E1,5.2078894E2,-4.5525012E2,-2.4057547E2,-4.7377277E1,9.154075E1,4.2053113E2,7.196205E1,-2.3669666E1,-1.1677463E1,-2.1621433E1,-1.09190855E1,6.995958E0,-4.3734932E1,3.1159647E1,1.6739851E1],"categories":[],"categories_nodes":[],"categories_segments":[],"categories_sizes":[],"default_left":[0,0,0,0,0,0,0,0,0,0,0,0,0,0,0,0,0,0,0,0,0],"id":66,"left_children":[1,3,5,7,9,-1,11,13,15,-1,17,19,-1,-1,-1,-1,-1,-1,-1,-1,-1],"loss_changes":[2.7881664E7,6.279562E6,3.608182E6,1.167011E6,4.113732E6,0E0,4.459078E6,5.02635E4,2.75942E5,0E0,3.9086695E6,6.77387E5,0E0,0E0,0E0,0E0,0E0,0E0,0E0,0E0,0E0],"parents":[2147483647,0,0,1,1,2,2,3,3,4,4,6,6,7,7,8,8,10,10,11,11],"right_children":[2,4,6,8,10,-1,12,14,16,-1,18,20,-1,-1,-1,-1,-1,-1,-1,-1,-1],"split_conditions":[3E0,1.3008194E4,1.2499084E2,6.488378E3,1.2E-1,7.2588066E1,8.4E-1,4E-1,1.2E-1,-4.7377277E1,2.0765314E2,9.8932356E-2,7.196205E1,-2.3669666E1,-1.1677463E1,-2.1621433E1,-1.09190855E1,6.995958E0,-4.3734932E1,3.1159647E1,1.6739851E1],"split_indices":[0,6,4,6,2,0,2,2,2,0,4,8,0,0,0,0,0,0,0,0,0],"split_type":[0,0,0,0,0,0,0,0,0,0,0,0,0,0,0,0,0,0,0,0,0],"sum_hessian":[2.66E2,2.08E2,5.8E1,1.25E2,8.3E1,4E0,5.4E1,3.9E1,8.6E1,3E0,8E1,5E1,4E0,3.5E1,4E0,7E0,7.9E1,7.7E1,3E0,1.3E1,3.7E1],"tree_param":{"num_deleted":"0","num_feature":"18","num_nodes":"21","size_leaf_vector":"1"}},{"base_weights":[3.0725563E1,-1.513498E2,5.516591E2,-2.9211954E2,-1.482363E1,4.3432092E2,1.0988574E3,-1.911788E2,-3.8276654E2,2.9872896E1,-4.2161716E1,4.9052768E2,1.8734389E2,2.031125E1,6.53902E1,3.3860364E0,-1.0540939E1,-2.1642897E1,-1.1509521E1,2.0203653E1,